booster[0]:
0:[f2<23261.7852] yes=1,no=2,missing=2,gain=6.10326872e+11,cover=2998
	1:[f6<5066.74023] yes=3,no=4,missing=4,gain=4.08201052e+10,cover=2605
		3:[f6<1780.68994] yes=7,no=8,missing=8,gain=1.9821609e+09,cover=1786
			7:[f6<492.109985] yes=15,no=16,missing=16,gain=39698432,cover=1553
				15:leaf=-87.2338486,cover=1091
				16:leaf=-81.3435211,cover=462
			8:[f6<3253.93994] yes=17,no=18,missing=18,gain=63629312,cover=233
				17:leaf=-62.9130516,cover=72
				18:leaf=-49.3591042,cover=161
		4:[f6<12961.2061] yes=9,no=10,missing=10,gain=4.92072243e+09,cover=819
			9:[f6<8499.12305] yes=19,no=20,missing=20,gain=1.73784013e+09,cover=736
				19:[f6<6932.84326] yes=25,no=26,missing=26,gain=186134400,cover=382
					25:[f6<5991.38281] yes=31,no=32,missing=32,gain=22306560,cover=188
						31:leaf=-33.0050125,cover=46
						32:leaf=-23.9209251,cover=142
					26:[f6<7740.41553] yes=33,no=34,missing=34,gain=26158336,cover=194
						33:leaf=-15.9367352,cover=97
						34:leaf=-8.4248867,cover=97
				20:[f6<10215.6699] yes=27,no=28,missing=28,gain=259776608,cover=354
					27:[f6<9421.65234] yes=35,no=36,missing=36,gain=24368592,cover=203
						35:leaf=1.34385204,cover=126
						36:leaf=8.46927071,cover=77
					28:[f6<10946.9209] yes=37,no=38,missing=38,gain=42683392,cover=151
						37:leaf=15.5827475,cover=74
						38:leaf=26.6966934,cover=77
			10:[f6<17072.8105] yes=21,no=22,missing=22,gain=305668608,cover=83
				21:[f6<13795.5264] yes=29,no=30,missing=30,gain=23112064,cover=48
					29:[f2<11517.1299] yes=39,no=40,missing=40,gain=1570816,cover=13
						39:leaf=16.1848106,cover=2
						40:leaf=42.1890717,cover=11
					30:leaf=63.1500168,cover=35
				22:leaf=99.5564117,cover=35
	2:[f6<44365.1836] yes=5,no=6,missing=6,gain=2.09080812e+10,cover=393
		5:[f6<36870.0586] yes=11,no=12,missing=12,gain=1.42603059e+09,cover=187
			11:[f6<23844.5684] yes=23,no=24,missing=24,gain=10727424,cover=71
				23:leaf=101.741364,cover=2
				24:leaf=245.008026,cover=69
			12:leaf=313.504272,cover=116
		6:[f6<50795.7031] yes=13,no=14,missing=14,gain=3.52360858e+09,cover=206
			13:leaf=382.512756,cover=98
			14:leaf=484.866638,cover=108
booster[1]:
0:[f0<22882.1582] yes=1,no=2,missing=2,gain=5.87785634e+11,cover=2996
	1:[f6<5066.74023] yes=3,no=4,missing=4,gain=4.08529469e+10,cover=2616
		3:[f0<2027.71997] yes=7,no=8,missing=8,gain=1.96243456e+09,cover=1788
			7:[f6<530.622986] yes=15,no=16,missing=16,gain=48603136,cover=1568
				15:leaf=-86.3199081,cover=1111
				16:leaf=-80.2343292,cover=457
			8:[f2<3153.86011] yes=17,no=18,missing=18,gain=47864320,cover=220
				17:leaf=-61.7880325,cover=57
				18:leaf=-48.5542564,cover=163
		4:[f6<12961.2061] yes=9,no=10,missing=10,gain=5.1693696e+09,cover=828
			9:[f6<8499.12305] yes=19,no=20,missing=20,gain=1.74300454e+09,cover=743
				19:[f6<6844.30176] yes=23,no=24,missing=24,gain=180512256,cover=378
					23:[f6<5991.38281] yes=29,no=30,missing=30,gain=20515328,cover=176
						29:leaf=-32.7668686,cover=49
						30:leaf=-24.0114861,cover=127
					24:[f6<7740.41553] yes=31,no=32,missing=32,gain=30127840,cover=202
						31:leaf=-16.2108002,cover=110
						32:leaf=-8.29302502,cover=92
				20:[f6<9917.35938] yes=25,no=26,missing=26,gain=253792000,cover=365
					25:[f6<9236.7041] yes=33,no=34,missing=34,gain=15812186,cover=187
						33:leaf=0.123816602,cover=88
						34:leaf=5.93735838,cover=99
					26:[f6<10946.9209] yes=35,no=36,missing=36,gain=50304576,cover=178
						35:leaf=14.8753233,cover=99
						36:leaf=25.9226036,cover=79
			10:[f6<17072.8105] yes=21,no=22,missing=22,gain=339148288,cover=85
				21:[f6<13795.5264] yes=27,no=28,missing=28,gain=30691200,cover=48
					27:leaf=34.2364388,cover=9
					28:leaf=62.4333153,cover=39
				22:leaf=101.121101,cover=37
	2:[f6<46888.2227] yes=5,no=6,missing=6,gain=1.93464566e+10,cover=380
		5:[f6<36870.0586] yes=11,no=12,missing=12,gain=2.0108247e+09,cover=210
			11:leaf=239.10881,cover=59
			12:leaf=321.257568,cover=151
		6:[f6<55102.1719] yes=13,no=14,missing=14,gain=1.84211866e+09,cover=170
			13:leaf=398.695374,cover=87
			14:leaf=493.12561,cover=83
booster[2]:
0:[f0<22882.1582] yes=1,no=2,missing=2,gain=5.63059491e+11,cover=2980
	1:[f6<4609.5127] yes=3,no=4,missing=4,gain=3.91424737e+10,cover=2598
		3:[f6<1780.68994] yes=7,no=8,missing=8,gain=1.62597274e+09,cover=1765
			7:[f6<492.109985] yes=15,no=16,missing=16,gain=39288832,cover=1555
				15:leaf=-85.5327682,cover=1068
				16:leaf=-79.8170853,cover=487
			8:[f4<3236.70093] yes=17,no=18,missing=18,gain=53666816,cover=210
				17:leaf=-62.1605339,cover=70
				18:leaf=-48.9591675,cover=140
		4:[f6<10946.9209] yes=9,no=10,missing=10,gain=4.44236493e+09,cover=833
			9:[f6<8042.73633] yes=19,no=20,missing=20,gain=1.11929101e+09,cover=666
				19:[f6<6844.30176] yes=23,no=24,missing=24,gain=125213952,cover=330
					23:[f6<5991.38281] yes=31,no=32,missing=32,gain=30232832,cover=190
						31:leaf=-33.3602562,cover=60
						32:leaf=-23.8683224,cover=130
					24:[f6<7559.66748] yes=33,no=34,missing=34,gain=9580928,cover=140
						33:leaf=-16.3133831,cover=93
						34:leaf=-10.263154,cover=47
				20:[f6<9421.65234] yes=25,no=26,missing=26,gain=148088000,cover=336
					25:[f6<8732.1543] yes=35,no=36,missing=36,gain=26781748,cover=192
						35:leaf=-5.72744226,cover=85
						36:leaf=1.75525045,cover=107
					26:[f6<10215.6699] yes=37,no=38,missing=38,gain=17944624,cover=144
						37:leaf=8.28642273,cover=76
						38:leaf=15.574707,cover=68
			10:[f6<13795.5264] yes=21,no=22,missing=22,gain=1.001696e+09,cover=167
				21:[f6<12961.2061] yes=27,no=28,missing=28,gain=16550784,cover=99
					27:leaf=25.7918186,cover=85
					28:[f4<11312.6631] yes=39,no=40,missing=40,gain=2018848,cover=14
						39:leaf=15.8486719,cover=2
						40:leaf=42.0443153,cover=12
				22:[f6<17072.8105] yes=29,no=30,missing=30,gain=152668416,cover=68
					29:leaf=61.5678978,cover=38
					30:leaf=96.6860428,cover=30
	2:[f6<46319.9531] yes=5,no=6,missing=6,gain=1.88833137e+10,cover=382
		5:[f6<36870.0586] yes=11,no=12,missing=12,gain=1.79752141e+09,cover=212
			11:leaf=240.047714,cover=70
			12:leaf=314.67099,cover=142
		6:[f6<50795.7031] yes=13,no=14,missing=14,gain=1.85011405e+09,cover=170
			13:leaf=379.482819,cover=71
			14:leaf=474.119995,cover=99
booster[3]:
0:[f6<23844.5684] yes=1,no=2,missing=2,gain=5.88215615e+11,cover=3004
	1:[f6<4609.5127] yes=3,no=4,missing=4,gain=3.83597281e+10,cover=2596
		3:[f3<1735.57996] yes=7,no=8,missing=8,gain=1.76570368e+09,cover=1754
			7:[f6<478.375] yes=15,no=16,missing=16,gain=35282944,cover=1522
				15:leaf=-84.7288818,cover=1051
				16:leaf=-79.0743179,cover=471
			8:[f2<3153.86011] yes=17,no=18,missing=18,gain=58004992,cover=232
				17:leaf=-61.3807068,cover=76
				18:leaf=-48.4840508,cover=156
		4:[f6<12961.2061] yes=9,no=10,missing=10,gain=4.61523149e+09,cover=842
			9:[f6<8499.12305] yes=19,no=20,missing=20,gain=1.74719552e+09,cover=763
				19:[f6<6932.84326] yes=23,no=24,missing=24,gain=194470912,cover=395
					23:[f6<5991.38281] yes=29,no=30,missing=30,gain=32965760,cover=200
						29:leaf=-32.8394699,cover=58
						30:leaf=-23.0869331,cover=142
					24:[f6<7740.41553] yes=31,no=32,missing=32,gain=22311136,cover=195
						31:leaf=-15.3270311,cover=98
						32:leaf=-8.38581753,cover=97
				20:[f6<10215.6699] yes=25,no=26,missing=26,gain=272038848,cover=368
					25:[f6<9421.65234] yes=33,no=34,missing=34,gain=28402088,cover=215
						33:leaf=0.780565798,cover=127
						34:leaf=8.15475368,cover=88
					26:[f6<10946.9209] yes=35,no=36,missing=36,gain=41338432,cover=153
						35:leaf=15.2055779,cover=70
						36:leaf=26.1190319,cover=83
			10:[f6<17072.8105] yes=21,no=22,missing=22,gain=347939328,cover=79
				21:[f6<13795.5264] yes=27,no=28,missing=28,gain=19564416,cover=45
					27:[f2<11517.1299] yes=37,no=38,missing=38,gain=1593696,cover=14
						37:leaf=15.7430134,cover=2
						38:leaf=41.1194725,cover=12
					28:leaf=60.6968727,cover=31
				22:leaf=99.9500351,cover=34
	2:[f6<44365.1836] yes=5,no=6,missing=6,gain=2.06675313e+10,cover=408
		5:[f6<36870.0586] yes=11,no=12,missing=12,gain=1.4939095e+09,cover=196
			11:leaf=234.355072,cover=75
			12:leaf=303.922791,cover=121
		6:[f6<53663.6016] yes=13,no=14,missing=14,gain=3.37497293e+09,cover=212
			13:leaf=378.252502,cover=116
			14:leaf=477.014862,cover=96
booster[4]:
0:[f0<22882.1582] yes=1,no=2,missing=2,gain=5.36307499e+11,cover=3014
	1:[f6<5066.74023] yes=3,no=4,missing=4,gain=3.82253056e+10,cover=2641
		3:[f4<1741.64001] yes=7,no=8,missing=8,gain=1.9090473e+09,cover=1810
			7:[f6<508.06601] yes=15,no=16,missing=16,gain=43728896,cover=1571
				15:leaf=-83.8352051,cover=1101
				16:leaf=-78.0307312,cover=470
			8:[f5<3244.86597] yes=17,no=18,missing=18,gain=60003840,cover=239
				17:leaf=-60.3444328,cover=71
				18:leaf=-47.2703362,cover=168
		4:[f6<12961.2061] yes=9,no=10,missing=10,gain=4.7894441e+09,cover=831
			9:[f6<8499.12305] yes=19,no=20,missing=20,gain=1.60939123e+09,cover=748
				19:[f6<6932.84326] yes=23,no=24,missing=24,gain=173037184,cover=378
					23:[f6<5991.38281] yes=29,no=30,missing=30,gain=21462784,cover=196
						29:leaf=-31.8367939,cover=46
						30:leaf=-23.0292282,cover=150
					24:[f6<7740.41553] yes=31,no=32,missing=32,gain=20839328,cover=182
						31:leaf=-15.0914459,cover=89
						32:leaf=-8.14607239,cover=93
				20:[f6<10215.6699] yes=25,no=26,missing=26,gain=262636064,cover=370
					25:[f6<9421.65234] yes=33,no=34,missing=34,gain=27541718,cover=220
						33:leaf=0.840534031,cover=138
						34:leaf=8.13732433,cover=82
					26:[f6<10946.9209] yes=35,no=36,missing=36,gain=34423936,cover=150
						35:leaf=15.134408,cover=69
						36:leaf=25.256855,cover=81
			10:[f6<17072.8105] yes=21,no=22,missing=22,gain=366155776,cover=83
				21:[f6<13795.5264] yes=27,no=28,missing=28,gain=21218816,cover=48
					27:[f3<11311.2402] yes=37,no=38,missing=38,gain=1300864,cover=13
						37:leaf=15.6380596,cover=2
						38:leaf=40.4824905,cover=11
					28:leaf=60.6091309,cover=35
				22:leaf=100.512009,cover=35
	2:[f6<44365.1836] yes=5,no=6,missing=6,gain=1.85365299e+10,cover=373
		5:[f6<36870.0586] yes=11,no=12,missing=12,gain=1.14597888e+09,cover=178
			11:leaf=231.597534,cover=66
			12:leaf=298.803833,cover=112
		6:[f6<50795.7031] yes=13,no=14,missing=14,gain=2.83911782e+09,cover=195
			13:leaf=366.939575,cover=91
			14:leaf=463.795197,cover=104
booster[5]:
0:[f0<22882.1582] yes=1,no=2,missing=2,gain=5.45384333e+11,cover=3012
	1:[f6<5066.74023] yes=3,no=4,missing=4,gain=3.6829438e+10,cover=2620
		3:[f3<1735.57996] yes=7,no=8,missing=8,gain=1.8766807e+09,cover=1797
			7:[f6<508.06601] yes=15,no=16,missing=16,gain=37863424,cover=1551
				15:leaf=-82.9956894,cover=1096
				16:leaf=-77.3125076,cover=455
			8:[f2<3153.86011] yes=17,no=18,missing=18,gain=66548736,cover=246
				17:leaf=-60.0532112,cover=77
				18:leaf=-46.8865433,cover=169
		4:[f6<12961.2061] yes=9,no=10,missing=10,gain=4.5198336e+09,cover=823
			9:[f6<8499.12305] yes=19,no=20,missing=20,gain=1.57095936e+09,cover=741
				19:[f6<6932.84326] yes=23,no=24,missing=24,gain=173538432,cover=382
					23:[f6<6187.66064] yes=29,no=30,missing=30,gain=24459904,cover=190
						29:leaf=-30.7522869,cover=63
						30:leaf=-22.2576733,cover=127
					24:[f6<7740.41553] yes=31,no=32,missing=32,gain=22863648,cover=192
						31:leaf=-15.0810766,cover=97
						32:leaf=-8.01508713,cover=95
				20:[f6<10215.6699] yes=25,no=26,missing=26,gain=245008416,cover=359
					25:[f6<9421.65234] yes=33,no=34,missing=34,gain=30410664,cover=216
						33:leaf=0.942333043,cover=134
						34:leaf=8.65334702,cover=82
					26:[f6<10946.9209] yes=35,no=36,missing=36,gain=34041536,cover=143
						35:leaf=15.1453438,cover=67
						36:leaf=25.4469166,cover=76
			10:[f6<17072.8105] yes=21,no=22,missing=22,gain=309478400,cover=82
				21:[f0<9667.57812] yes=27,no=28,missing=28,gain=8639104,cover=48
					27:leaf=11.0404835,cover=1
					28:[f6<14938.1768] yes=37,no=38,missing=38,gain=17664,cover=47
						37:leaf=46.1938858,cover=22
						38:leaf=61.9813614,cover=25
				22:leaf=97.1757965,cover=34
	2:[f6<46319.9531] yes=5,no=6,missing=6,gain=1.92119439e+10,cover=392
		5:[f6<36870.0586] yes=11,no=12,missing=12,gain=2.02172006e+09,cover=213
			11:leaf=229.483429,cover=73
			12:leaf=305.518951,cover=140
		6:[f6<53663.6016] yes=13,no=14,missing=14,gain=2.24854016e+09,cover=179
			13:leaf=374.74408,cover=88
			14:leaf=469.318939,cover=91
booster[6]:
0:[f6<23844.5684] yes=1,no=2,missing=2,gain=5.16979393e+11,cover=3021
	1:[f6<5066.74023] yes=3,no=4,missing=4,gain=3.65892403e+10,cover=2635
		3:[f6<1780.68994] yes=7,no=8,missing=8,gain=1.78423398e+09,cover=1809
			7:[f6<463.667999] yes=15,no=16,missing=16,gain=36225024,cover=1575
				15:leaf=-82.2392731,cover=1074
				16:leaf=-76.8044662,cover=501
			8:[f3<3218.02002] yes=17,no=18,missing=18,gain=58473472,cover=234
				17:leaf=-59.4157257,cover=70
				18:leaf=-46.4144211,cover=164
		4:[f6<12961.2061] yes=9,no=10,missing=10,gain=4.58188698e+09,cover=826
			9:[f6<8499.12305] yes=19,no=20,missing=20,gain=1.5027255e+09,cover=744
				19:[f6<6844.30176] yes=23,no=24,missing=24,gain=161928704,cover=377
					23:[f6<5991.38281] yes=29,no=30,missing=30,gain=20854912,cover=177
						29:leaf=-31.4219036,cover=48
						30:leaf=-22.6828384,cover=129
					24:[f6<7559.66748] yes=31,no=32,missing=32,gain=25803168,cover=200
						31:leaf=-15.6711178,cover=98
						32:leaf=-8.32625771,cover=102
				20:[f6<10215.6699] yes=25,no=26,missing=26,gain=247206496,cover=367
					25:[f6<9187.07031] yes=33,no=34,missing=34,gain=29112190,cover=225
						33:leaf=-0.812480927,cover=90
						34:leaf=6.51096916,cover=135
					26:[f6<10946.9209] yes=35,no=36,missing=36,gain=36505280,cover=142
						35:leaf=14.7451754,cover=68
						36:leaf=25.3804531,cover=74
			10:[f6<17072.8105] yes=21,no=22,missing=22,gain=365706240,cover=82
				21:[f6<13795.5264] yes=27,no=28,missing=28,gain=16988416,cover=47
					27:[f3<11311.2402] yes=37,no=38,missing=38,gain=1379248,cover=13
						37:leaf=15.3430271,cover=2
						38:leaf=39.939003,cover=11
					28:leaf=58.823822,cover=34
				22:leaf=99.0173111,cover=35
	2:[f6<44365.1836] yes=5,no=6,missing=6,gain=1.77877811e+10,cover=386
		5:[f6<36870.0586] yes=11,no=12,missing=12,gain=1.17189837e+09,cover=196
			11:leaf=229.17952,cover=74
			12:leaf=293.009949,cover=122
		6:[f6<50795.7031] yes=13,no=14,missing=14,gain=2.31397786e+09,cover=190
			13:leaf=361.772797,cover=94
			14:leaf=452.902344,cover=96
booster[7]:
0:[f4<23733.0312] yes=1,no=2,missing=2,gain=5.0989056e+11,cover=3002
	1:[f6<5066.74023] yes=3,no=4,missing=4,gain=3.58642893e+10,cover=2622
		3:[f3<1735.57996] yes=7,no=8,missing=8,gain=1.77335501e+09,cover=1797
			7:[f6<463.667999] yes=15,no=16,missing=16,gain=32063488,cover=1552
				15:leaf=-81.4051514,cover=1062
				16:leaf=-76.0684204,cover=490
			8:[f6<3253.93994] yes=17,no=18,missing=18,gain=64790528,cover=245
				17:leaf=-59.1786995,cover=76
				18:leaf=-46.1399879,cover=169
		4:[f6<12961.2061] yes=9,no=10,missing=10,gain=4.26812262e+09,cover=825
			9:[f6<8499.12305] yes=19,no=20,missing=20,gain=1.54780954e+09,cover=741
				19:[f6<6844.30176] yes=23,no=24,missing=24,gain=163966976,cover=375
					23:[f6<5991.38281] yes=29,no=30,missing=30,gain=18181120,cover=181
						29:leaf=-30.8602695,cover=48
						30:leaf=-22.6175404,cover=133
					24:[f6<7740.41553] yes=31,no=32,missing=32,gain=21814768,cover=194
						31:leaf=-14.8394032,cover=102
						32:leaf=-7.95531702,cover=92
				20:[f6<9917.35938] yes=25,no=26,missing=26,gain=252468416,cover=366
					25:[f6<9236.7041] yes=33,no=34,missing=34,gain=13994899,cover=183
						33:leaf=-0.157800362,cover=98
						34:leaf=5.36817455,cover=85
					26:[f6<10946.9209] yes=35,no=36,missing=36,gain=49542464,cover=183
						35:leaf=13.8197947,cover=96
						36:leaf=24.5518627,cover=87
			10:[f6<17072.8105] yes=21,no=22,missing=22,gain=251706880,cover=84
				21:[f4<11312.6631] yes=27,no=28,missing=28,gain=17028480,cover=49
					27:leaf=15.2407417,cover=2
					28:leaf=55.5471039,cover=47
				22:leaf=92.1911774,cover=35
	2:[f6<46319.9531] yes=5,no=6,missing=6,gain=1.79802604e+10,cover=380
		5:[f6<36870.0586] yes=11,no=12,missing=12,gain=1.53826099e+09,cover=207
			11:leaf=227.138336,cover=69
			12:leaf=297.296783,cover=138
		6:[f6<53663.6016] yes=13,no=14,missing=14,gain=1.80486144e+09,cover=173
			13:leaf=369.131012,cover=85
			14:leaf=459.043518,cover=88
booster[8]:
0:[f0<22882.1582] yes=1,no=2,missing=2,gain=5.16237394e+11,cover=3032
	1:[f6<5066.74023] yes=3,no=4,missing=4,gain=3.61089884e+10,cover=2648
		3:[f3<1735.57996] yes=7,no=8,missing=8,gain=1.8111447e+09,cover=1812
			7:[f6<530.622986] yes=15,no=16,missing=16,gain=33611776,cover=1565
				15:leaf=-80.4754868,cover=1113
				16:leaf=-75.0184784,cover=452
			8:[f2<3153.86011] yes=17,no=18,missing=18,gain=61470208,cover=247
				17:leaf=-58.2437935,cover=73
				18:[f6<4374.58984] yes=25,no=26,missing=26,gain=485376,cover=174
					25:leaf=-46.5471001,cover=150
					26:leaf=-36.6569786,cover=24
		4:[f6<11943.6299] yes=9,no=10,missing=10,gain=4.40046234e+09,cover=836
			9:[f6<8499.12305] yes=19,no=20,missing=20,gain=1.47352218e+09,cover=736
				19:[f6<6932.84326] yes=27,no=28,missing=28,gain=169342848,cover=371
					27:[f6<5991.38281] yes=33,no=34,missing=34,gain=19911808,cover=187
						33:leaf=-30.5241737,cover=52
						34:leaf=-22.2693577,cover=135
					28:[f6<7740.41553] yes=35,no=36,missing=36,gain=18874544,cover=184
						35:leaf=-14.3381739,cover=92
						36:leaf=-7.76316071,cover=92
				20:[f6<9917.35938] yes=29,no=30,missing=30,gain=214281056,cover=365
					29:[f6<9127.51855] yes=37,no=38,missing=38,gain=16712516,cover=188
						37:leaf=-0.992207646,cover=72
						38:leaf=5.11924028,cover=116
					30:[f6<10818.1885] yes=39,no=40,missing=40,gain=38597120,cover=177
						39:leaf=13.2022448,cover=89
						40:leaf=22.8740311,cover=88
			10:[f6<17072.8105] yes=21,no=22,missing=22,gain=444021760,cover=100
				21:[f6<13795.5264] yes=31,no=32,missing=32,gain=59262080,cover=64
					31:[f3<11896.9082] yes=41,no=42,missing=42,gain=865472,cover=27
						41:leaf=26.7717133,cover=12
						42:leaf=40.2211571,cover=15
					32:leaf=58.1219292,cover=37
				22:leaf=94.7116547,cover=36
	2:[f6<47498.6641] yes=5,no=6,missing=6,gain=1.85742131e+10,cover=384
		5:[f6<39599.0234] yes=11,no=12,missing=12,gain=2.12656128e+09,cover=223
			11:[f6<31606.3906] yes=23,no=24,missing=24,gain=107732992,cover=114
				23:leaf=172.770645,cover=12
				24:leaf=250.501297,cover=102
			12:leaf=315.821167,cover=109
		6:[f6<53663.6016] yes=13,no=14,missing=14,gain=635863040,cover=161
			13:leaf=373.294861,cover=61
			14:leaf=452.87262,cover=100
booster[9]:
0:[f0<22882.1582] yes=1,no=2,missing=2,gain=5.1963111e+11,cover=3018
	1:[f5<5055.4834] yes=3,no=4,missing=4,gain=3.4435625e+10,cover=2624
		3:[f3<1735.57996] yes=7,no=8,missing=8,gain=1.73431194e+09,cover=1796
			7:[f5<414.01001] yes=13,no=14,missing=14,gain=34955264,cover=1560
				13:leaf=-80.1650162,cover=919
				14:leaf=-75.126915,cover=641
			8:[f2<3153.86011] yes=15,no=16,missing=16,gain=59889664,cover=236
				15:leaf=-57.5314178,cover=70
				16:leaf=-44.5880547,cover=166
		4:[f5<12958.5371] yes=9,no=10,missing=10,gain=4.29048781e+09,cover=828
			9:[f5<8497.41113] yes=17,no=18,missing=18,gain=1.45216499e+09,cover=746
				17:[f5<6840.93604] yes=23,no=24,missing=24,gain=150512384,cover=379
					23:[f5<5734.73193] yes=29,no=30,missing=30,gain=16401280,cover=184
						29:leaf=-31.0608025,cover=35
						30:leaf=-22.3169022,cover=149
					24:[f5<7738.84717] yes=31,no=32,missing=32,gain=21755792,cover=195
						31:leaf=-14.6777086,cover=101
						32:leaf=-7.83121061,cover=94
				18:[f5<10365.9844] yes=25,no=26,missing=26,gain=234777344,cover=367
					25:[f5<9342.54004] yes=33,no=34,missing=34,gain=42745724,cover=242
						33:leaf=0.120378189,cover=118
						34:leaf=8.51317978,cover=124
					26:[f5<10934.4199] yes=35,no=36,missing=36,gain=22154560,cover=125
						35:leaf=15.1518822,cover=46
						36:leaf=24.6402416,cover=79
			10:[f5<16989.1621] yes=19,no=20,missing=20,gain=217083904,cover=82
				19:[f3<11311.2402] yes=27,no=28,missing=28,gain=12869120,cover=46
					27:leaf=8.78968239,cover=1
					28:[f5<14821.9834] yes=37,no=38,missing=38,gain=5395584,cover=45
						37:leaf=45.4306183,cover=21
						38:leaf=62.97995,cover=24
				20:leaf=91.1249008,cover=36
	2:[f5<48939.9648] yes=5,no=6,missing=6,gain=1.87016151e+10,cover=394
		5:[f5<38990] yes=11,no=12,missing=12,gain=2.87766938e+09,cover=258
			11:[f5<32567.5723] yes=21,no=22,missing=22,gain=181563392,cover=107
				21:leaf=186.486145,cover=21
				22:leaf=252.172867,cover=86
			12:leaf=317.658142,cover=151
		6:leaf=435.811737,cover=136
booster[10]:
0:[f0<22882.1582] yes=1,no=2,missing=2,gain=4.9407787e+11,cover=2994
	1:[f6<5066.74023] yes=3,no=4,missing=4,gain=3.3827029e+10,cover=2607
		3:[f6<2204.82007] yes=7,no=8,missing=8,gain=1.68903475e+09,cover=1782
			7:[f6<530.622986] yes=15,no=16,missing=16,gain=43548672,cover=1556
				15:leaf=-78.9049377,cover=1101
				16:leaf=-73.2466583,cover=455
			8:[f6<3583.21997] yes=17,no=18,missing=18,gain=39114240,cover=226
				17:leaf=-54.1749802,cover=84
				18:leaf=-43.4163818,cover=142
		4:[f6<12961.2061] yes=9,no=10,missing=10,gain=4.14173542e+09,cover=825
			9:[f6<8499.12305] yes=19,no=20,missing=20,gain=1.42946867e+09,cover=745
				19:[f6<6932.84326] yes=25,no=26,missing=26,gain=164871936,cover=373
					25:[f6<5991.38281] yes=31,no=32,missing=32,gain=20275008,cover=181
						31:leaf=-30.1014252,cover=50
						32:leaf=-21.6814842,cover=131
					26:[f6<7740.41553] yes=33,no=34,missing=34,gain=19807520,cover=192
						33:leaf=-14.0388718,cover=95
						34:leaf=-7.46425819,cover=97
				20:[f6<10215.6699] yes=27,no=28,missing=28,gain=222457440,cover=372
					27:[f6<9421.65234] yes=35,no=36,missing=36,gain=22926536,cover=215
						35:leaf=0.976218224,cover=127
						36:leaf=7.60439539,cover=88
					28:[f6<10946.9209] yes=37,no=38,missing=38,gain=38488384,cover=157
						37:leaf=13.9237995,cover=76
						38:leaf=24.2341747,cover=81
			10:[f6<17072.8105] yes=21,no=22,missing=22,gain=327133696,cover=80
				21:[f4<11312.6631] yes=29,no=30,missing=30,gain=14617216,cover=44
					29:leaf=14.7963867,cover=2
					30:leaf=52.8000755,cover=42
				22:leaf=94.588356,cover=36
	2:[f6<48144.1445] yes=5,no=6,missing=6,gain=1.70884792e+10,cover=387
		5:[f6<40491.043] yes=11,no=12,missing=12,gain=2.81806438e+09,cover=246
			11:[f6<34698.3047] yes=23,no=24,missing=24,gain=121012224,cover=127
				23:leaf=209.363205,cover=45
				24:leaf=258.177582,cover=82
			12:leaf=318.920807,cover=119
		6:[f6<55102.1719] yes=13,no=14,missing=14,gain=207552512,cover=141
			13:leaf=375.371216,cover=58
			14:leaf=450.998749,cover=83
booster[11]:
0:[f0<22882.1582] yes=1,no=2,missing=2,gain=4.97447993e+11,cover=2973
	1:[f5<5055.4834] yes=3,no=4,missing=4,gain=3.17669089e+10,cover=2576
		3:[f0<1596.71997] yes=7,no=8,missing=8,gain=1.63126477e+09,cover=1783
			7:[f5<507.368011] yes=15,no=16,missing=16,gain=37093376,cover=1544
				15:leaf=-78.1671524,cover=1096
				16:leaf=-72.6843491,cover=448
			8:[f2<3153.86011] yes=17,no=18,missing=18,gain=57487360,cover=239
				17:leaf=-56.5523682,cover=74
				18:leaf=-44.063446,cover=165
		4:[f5<10541.3223] yes=9,no=10,missing=10,gain=3.5193559e+09,cover=793
			9:[f5<7950.12451] yes=19,no=20,missing=20,gain=708697344,cover=595
				19:[f5<6732.82666] yes=23,no=24,missing=24,gain=65638400,cover=294
					23:[f5<5734.73193] yes=31,no=32,missing=32,gain=12380800,cover=164
						31:leaf=-30.3484535,cover=35
						32:leaf=-22.3132191,cover=129
					24:[f5<7469.521] yes=33,no=34,missing=34,gain=4745184,cover=130
						33:leaf=-15.9631968,cover=86
						34:leaf=-11.170002,cover=44
				20:[f5<9235.92969] yes=25,no=26,missing=26,gain=88335736,cover=301
					25:[f5<8607.33008] yes=35,no=36,missing=36,gain=14665628,cover=158
						35:leaf=-6.23219633,cover=81
						36:leaf=-0.153056636,cover=77
					26:[f5<10123.9941] yes=37,no=38,missing=38,gain=10112288,cover=143
						37:leaf=5.68227768,cover=100
						38:leaf=11.5839291,cover=43
			10:[f5<14821.9834] yes=21,no=22,missing=22,gain=969555200,cover=198
				21:[f5<12958.5371] yes=27,no=28,missing=28,gain=79611968,cover=143
					27:[f5<11109.2314] yes=39,no=40,missing=40,gain=8643264,cover=120
						39:leaf=17.7584305,cover=48
						40:leaf=24.5286884,cover=72
					28:[f4<11530.9189] yes=41,no=42,missing=42,gain=5285376,cover=23
						41:leaf=8.62456036,cover=1
						42:leaf=43.833992,cover=22
				22:[f5<16989.1621] yes=29,no=30,missing=30,gain=40067840,cover=55
					29:leaf=59.5887108,cover=25
					30:leaf=85.5595551,cover=30
	2:[f5<44365.1836] yes=5,no=6,missing=6,gain=1.82004941e+10,cover=397
		5:[f5<36835.9023] yes=11,no=12,missing=12,gain=1.13023386e+09,cover=192
			11:leaf=218.573914,cover=75
			12:leaf=280.822479,cover=117
		6:[f5<50795.7031] yes=13,no=14,missing=14,gain=2.44065894e+09,cover=205
			13:leaf=343.301666,cover=86
			14:leaf=432.451202,cover=119
booster[12]:
0:[f0<22882.1582] yes=1,no=2,missing=2,gain=4.5548005e+11,cover=2984
	1:[f5<5055.4834] yes=3,no=4,missing=4,gain=3.19930122e+10,cover=2610
		3:[f0<1596.71997] yes=7,no=8,missing=8,gain=1.53144525e+09,cover=1790
			7:[f6<438.156006] yes=15,no=16,missing=16,gain=33570816,cover=1559
				15:leaf=-77.5547714,cover=990
				16:leaf=-72.5416183,cover=569
			8:[f6<3253.93994] yes=17,no=18,missing=18,gain=45970944,cover=231
				17:leaf=-55.6861115,cover=71
				18:leaf=-43.9355087,cover=160
		4:[f6<12961.2061] yes=9,no=10,missing=10,gain=3.73482496e+09,cover=820
			9:[f6<8499.12305] yes=19,no=20,missing=20,gain=1.40273216e+09,cover=745
				19:[f6<6932.84326] yes=23,no=24,missing=24,gain=145296256,cover=373
					23:[f6<6187.66064] yes=29,no=30,missing=30,gain=18966912,cover=190
						29:leaf=-28.7528763,cover=56
						30:leaf=-20.9489269,cover=134
					24:[f6<7740.41553] yes=31,no=32,missing=32,gain=17354368,cover=183
						31:leaf=-13.8976717,cover=92
						32:leaf=-7.5702033,cover=91
				20:[f6<9917.35938] yes=25,no=26,missing=26,gain=222123936,cover=372
					25:[f6<9127.51855] yes=33,no=34,missing=34,gain=14750001,cover=194
						33:leaf=-0.985262454,cover=69
						34:leaf=4.75417471,cover=125
					26:[f6<10946.9209] yes=35,no=36,missing=36,gain=41934080,cover=178
						35:leaf=13.3915844,cover=95
						36:leaf=23.438488,cover=83
			10:[f6<17072.8105] yes=21,no=22,missing=22,gain=267599872,cover=75
				21:[f6<13795.5264] yes=27,no=28,missing=28,gain=8246528,cover=40
					27:leaf=34.9566765,cover=11
					28:leaf=54.5076828,cover=29
				22:leaf=90.71492,cover=35
	2:[f6<44365.1836] yes=5,no=6,missing=6,gain=1.4646444e+10,cover=374
		5:[f6<36870.0586] yes=11,no=12,missing=12,gain=912154624,cover=182
			11:leaf=214.124969,cover=60
			12:leaf=276.154785,cover=122
		6:[f6<50795.7031] yes=13,no=14,missing=14,gain=2.14109389e+09,cover=192
			13:leaf=339.670105,cover=93
			14:leaf=426.168427,cover=99
booster[13]:
0:[f6<23844.5684] yes=1,no=2,missing=2,gain=4.69787345e+11,cover=3016
	1:[f6<5066.74023] yes=3,no=4,missing=4,gain=3.23901481e+10,cover=2621
		3:[f6<1780.68994] yes=7,no=8,missing=8,gain=1.54646938e+09,cover=1790
			7:[f6<407.369995] yes=15,no=16,missing=16,gain=33128448,cover=1553
				15:leaf=-77.0509033,cover=899
				16:leaf=-72.1941681,cover=654
			8:[f6<3253.93994] yes=17,no=18,missing=18,gain=57349120,cover=237
				17:leaf=-55.7360687,cover=72
				18:[f6<4374.58984] yes=23,no=24,missing=24,gain=1295872,cover=165
					23:leaf=-44.4310341,cover=140
					24:leaf=-34.9207687,cover=25
		4:[f6<12961.2061] yes=9,no=10,missing=10,gain=3.95995725e+09,cover=831
			9:[f6<8499.12305] yes=19,no=20,missing=20,gain=1.33703296e+09,cover=746
				19:[f6<6844.30176] yes=25,no=26,missing=26,gain=134586048,cover=370
					25:[f6<5991.38281] yes=33,no=34,missing=34,gain=13291520,cover=169
						33:leaf=-28.6340599,cover=45
						34:leaf=-21.1771622,cover=124
					26:[f6<7559.66748] yes=35,no=36,missing=36,gain=19019584,cover=201
						35:leaf=-14.3025837,cover=98
						36:leaf=-7.98388815,cover=103
				20:[f6<9917.35938] yes=27,no=28,missing=28,gain=223375968,cover=376
					27:[f6<9236.7041] yes=37,no=38,missing=38,gain=15784118,cover=196
						37:leaf=-0.19616428,cover=100
						38:leaf=5.46378088,cover=96
					28:[f6<10946.9209] yes=39,no=40,missing=40,gain=46842688,cover=180
						39:leaf=12.8385019,cover=93
						40:leaf=23.3343258,cover=87
			10:[f6<15783.7529] yes=21,no=22,missing=22,gain=288273664,cover=85
				21:[f4<11312.6631] yes=29,no=30,missing=30,gain=10972544,cover=41
					29:leaf=14.3011713,cover=2
					30:leaf=48.6018257,cover=39
				22:[f6<19201.2754] yes=31,no=32,missing=32,gain=33095680,cover=44
					31:leaf=75.1233063,cover=32
					32:leaf=108.896362,cover=12
	2:[f6<44365.1836] yes=5,no=6,missing=6,gain=1.64455383e+10,cover=395
		5:[f6<36870.0586] yes=11,no=12,missing=12,gain=1.08673434e+09,cover=190
			11:leaf=211.956894,cover=70
			12:leaf=273.960846,cover=120
		6:[f6<50795.7031] yes=13,no=14,missing=14,gain=2.67708006e+09,cover=205
			13:leaf=336.507019,cover=98
			14:leaf=426.178467,cover=107
booster[14]:
0:[f0<22882.1582] yes=1,no=2,missing=2,gain=4.61071679e+11,cover=3010
	1:[f6<5066.74023] yes=3,no=4,missing=4,gain=3.11224525e+10,cover=2617
		3:[f5<1754.51001] yes=7,no=8,missing=8,gain=1.54472448e+09,cover=1804
			7:[f6<492.109985] yes=15,no=16,missing=16,gain=30629888,cover=1560
				15:leaf=-75.8045197,cover=1096
				16:leaf=-70.6776428,cover=464
			8:[f6<3253.93994] yes=17,no=18,missing=18,gain=57371648,cover=244
				17:leaf=-55.1839294,cover=75
				18:leaf=-42.8989639,cover=169
		4:[f6<12961.2061] yes=9,no=10,missing=10,gain=3.76144998e+09,cover=813
			9:[f6<8499.12305] yes=19,no=20,missing=20,gain=1.2841161e+09,cover=728
				19:[f6<6932.84326] yes=23,no=24,missing=24,gain=134206016,cover=369
					23:[f6<6187.66064] yes=29,no=30,missing=30,gain=17655488,cover=179
						29:leaf=-28.2019653,cover=52
						30:leaf=-20.3975277,cover=127
					24:[f6<7740.41553] yes=31,no=32,missing=32,gain=19343408,cover=190
						31:leaf=-13.896102,cover=94
						32:leaf=-7.365026,cover=96
				20:[f6<10215.6699] yes=25,no=26,missing=26,gain=211210688,cover=359
					25:[f6<9302.3623] yes=33,no=34,missing=34,gain=23145774,cover=210
						33:leaf=0.0190135762,cover=102
						34:leaf=6.64691401,cover=108
					26:[f6<10946.9209] yes=35,no=36,missing=36,gain=28141888,cover=149
						35:leaf=13.6724634,cover=65
						36:leaf=22.9136715,cover=84
			10:[f6<17072.8105] yes=21,no=22,missing=22,gain=235990272,cover=85
				21:[f6<13795.5264] yes=27,no=28,missing=28,gain=16958976,cover=51
					27:leaf=34.2869492,cover=12
					28:leaf=55.0799255,cover=39
				22:leaf=87.4990082,cover=34
	2:[f6<44365.1836] yes=5,no=6,missing=6,gain=1.61655357e+10,cover=393
		5:[f6<36870.0586] yes=11,no=12,missing=12,gain=1.09849805e+09,cover=189
			11:leaf=211.466827,cover=74
			12:leaf=272.930298,cover=115
		6:[f6<50795.7031] yes=13,no=14,missing=14,gain=2.68337152e+09,cover=204
			13:leaf=333.671906,cover=98
			14:leaf=423.35968,cover=106
booster[15]:
0:[f6<23844.5684] yes=1,no=2,missing=2,gain=4.15865537e+11,cover=3006
	1:[f5<5055.4834] yes=3,no=4,missing=4,gain=3.13576858e+10,cover=2631
		3:[f3<1735.57996] yes=7,no=8,missing=8,gain=1.4870528e+09,cover=1785
			7:[f6<387.136993] yes=15,no=16,missing=16,gain=30343168,cover=1551
				15:leaf=-75.5658569,cover=876
				16:leaf=-70.8630905,cover=675
			8:[f5<3244.86597] yes=17,no=18,missing=18,gain=51220992,cover=234
				17:leaf=-54.4673042,cover=69
				18:leaf=-42.3400917,cover=165
		4:[f6<12961.2061] yes=9,no=10,missing=10,gain=3.92104806e+09,cover=846
			9:[f6<8499.12305] yes=19,no=20,missing=20,gain=1.36349363e+09,cover=758
				19:[f6<7078.95508] yes=23,no=24,missing=24,gain=138243456,cover=382
					23:[f6<5991.38281] yes=29,no=30,missing=30,gain=20480384,cover=206
						29:leaf=-28.6728249,cover=46
						30:leaf=-20.3116188,cover=160
					24:[f6<7954.82715] yes=31,no=32,missing=32,gain=17118880,cover=176
						31:leaf=-12.7861023,cover=103
						32:leaf=-6.30817747,cover=73
				20:[f6<9917.35938] yes=25,no=26,missing=26,gain=215002336,cover=376
					25:[f6<9187.07031] yes=33,no=34,missing=34,gain=13326994,cover=191
						33:leaf=-0.406719148,cover=84
						34:leaf=4.89963675,cover=107
					26:[f6<10946.9209] yes=35,no=36,missing=36,gain=42873344,cover=185
						35:leaf=12.9765816,cover=99
						36:leaf=22.9188423,cover=86
			10:[f6<17072.8105] yes=21,no=22,missing=22,gain=277023744,cover=88
				21:[f6<13795.5264] yes=27,no=28,missing=28,gain=13445120,cover=52
					27:[f1<10165.7207] yes=37,no=38,missing=38,gain=680656,cover=14
						37:leaf=9.96095181,cover=1
						38:leaf=36.8199196,cover=13
					28:leaf=54.4605522,cover=38
				22:leaf=88.5602264,cover=36
	2:[f6<44365.1836] yes=5,no=6,missing=6,gain=1.45977836e+10,cover=375
		5:[f6<36870.0586] yes=11,no=12,missing=12,gain=1.0460201e+09,cover=191
			11:leaf=207.127808,cover=73
			12:leaf=267.176239,cover=118
		6:[f6<53663.6016] yes=13,no=14,missing=14,gain=2.05884621e+09,cover=184
			13:leaf=334.47937,cover=105
			14:leaf=421.46109,cover=79
booster[16]:
0:[f0<22882.1582] yes=1,no=2,missing=2,gain=4.37171356e+11,cover=3012
	1:[f6<4609.5127] yes=3,no=4,missing=4,gain=2.93772329e+10,cover=2624
		3:[f6<1780.68994] yes=7,no=8,missing=8,gain=1.33636096e+09,cover=1797
			7:[f6<530.622986] yes=15,no=16,missing=16,gain=32047104,cover=1570
				15:leaf=-74.2644653,cover=1122
				16:leaf=-69.1146774,cover=448
			8:[f6<3253.93994] yes=17,no=18,missing=18,gain=43300352,cover=227
				17:leaf=-53.8878593,cover=74
				18:leaf=-42.5531197,cover=153
		4:[f6<12961.2061] yes=9,no=10,missing=10,gain=3.69662541e+09,cover=827
			9:[f6<8499.12305] yes=19,no=20,missing=20,gain=1.3069769e+09,cover=750
				19:[f6<6932.84326] yes=23,no=24,missing=24,gain=158514560,cover=396
					23:[f6<5991.38281] yes=29,no=30,missing=30,gain=23177024,cover=201
						29:leaf=-28.7588673,cover=58
						30:leaf=-20.5137901,cover=143
					24:[f6<7740.41553] yes=31,no=32,missing=32,gain=18730976,cover=195
						31:leaf=-13.4216785,cover=97
						32:leaf=-7.08353996,cover=98
				20:[f6<10215.6699] yes=25,no=26,missing=26,gain=190114528,cover=354
					25:[f6<9421.65234] yes=33,no=34,missing=34,gain=19477206,cover=205
						33:leaf=0.82984817,cover=124
						34:leaf=7.11938763,cover=81
					26:[f6<10946.9209] yes=35,no=36,missing=36,gain=23738272,cover=149
						35:leaf=13.6217718,cover=71
						36:leaf=22.0909882,cover=78
			10:[f6<17072.8105] yes=21,no=22,missing=22,gain=213372416,cover=77
				21:[f6<13795.5264] yes=27,no=28,missing=28,gain=5368960,cover=45
					27:leaf=32.5844536,cover=7
					28:leaf=54.4127769,cover=38
				22:leaf=88.5147018,cover=32
	2:[f6<46319.9531] yes=5,no=6,missing=6,gain=1.57226435e+10,cover=388
		5:[f6<36870.0586] yes=11,no=12,missing=12,gain=1.72624282e+09,cover=213
			11:leaf=203.880737,cover=70
			12:leaf=274.320679,cover=143
		6:[f6<55102.1719] yes=13,no=14,missing=14,gain=1.52154931e+09,cover=175
			13:leaf=343.39151,cover=94
			14:leaf=425.755371,cover=81
booster[17]:
0:[f0<22882.1582] yes=1,no=2,missing=2,gain=4.43132772e+11,cover=2978
	1:[f6<4609.5127] yes=3,no=4,missing=4,gain=2.88955105e+10,cover=2581
		3:[f0<1596.71997] yes=7,no=8,missing=8,gain=1.31094118e+09,cover=1762
			7:[f6<363.07901] yes=15,no=16,missing=16,gain=27467776,cover=1540
				15:leaf=-74.1722717,cover=825
				16:leaf=-69.621521,cover=715
			8:[f2<3153.86011] yes=17,no=18,missing=18,gain=34382336,cover=222
				17:leaf=-53.0141754,cover=67
				18:leaf=-42.2202873,cover=155
		4:[f6<12961.2061] yes=9,no=10,missing=10,gain=3.84949914e+09,cover=819
			9:[f6<8499.12305] yes=19,no=20,missing=20,gain=1.33318259e+09,cover=739
				19:[f6<6932.84326] yes=25,no=26,missing=26,gain=147409664,cover=390
					25:[f6<5991.38281] yes=31,no=32,missing=32,gain=26207040,cover=199
						31:leaf=-28.8204536,cover=58
						32:leaf=-20.143549,cover=141
					26:[f6<7740.41553] yes=33,no=34,missing=34,gain=17515680,cover=191
						33:leaf=-13.4867649,cover=95
						34:leaf=-7.27855825,cover=96
				20:[f6<10215.6699] yes=27,no=28,missing=28,gain=210948800,cover=349
					27:[f6<9421.65234] yes=35,no=36,missing=36,gain=16857866,cover=198
						35:leaf=0.995400846,cover=124
						36:leaf=7.01122093,cover=74
					28:[f6<10946.9209] yes=37,no=38,missing=38,gain=27872704,cover=151
						37:leaf=13.5525169,cover=64
						38:leaf=22.7230167,cover=87
			10:[f6<17072.8105] yes=21,no=22,missing=22,gain=250422528,cover=80
				21:[f4<11312.6631] yes=29,no=30,missing=30,gain=15577216,cover=43
					29:leaf=13.6040878,cover=2
					30:[f6<13795.5264] yes=39,no=40,missing=40,gain=706432,cover=41
						39:leaf=36.8207626,cover=10
						40:leaf=54.8210487,cover=31
				22:leaf=88.1547623,cover=37
	2:[f6<48144.1445] yes=5,no=6,missing=6,gain=1.56575662e+10,cover=397
		5:[f6<40491.043] yes=11,no=12,missing=12,gain=2.39635661e+09,cover=248
			11:[f6<32577.7695] yes=23,no=24,missing=24,gain=88621056,cover=127
				23:leaf=178.348633,cover=22
				24:leaf=234.535309,cover=105
			12:leaf=296.466522,cover=121
		6:[f6<55102.1719] yes=13,no=14,missing=14,gain=336150528,cover=149
			13:leaf=349.334106,cover=60
			14:leaf=421.338776,cover=89
booster[18]:
0:[f6<23844.5684] yes=1,no=2,missing=2,gain=4.28460376e+11,cover=2984
	1:[f6<5066.74023] yes=3,no=4,missing=4,gain=2.89052058e+10,cover=2594
		3:[f4<1741.64001] yes=7,no=8,missing=8,gain=1.35795507e+09,cover=1769
			7:[f5<527.39502] yes=15,no=16,missing=16,gain=28434432,cover=1545
				15:leaf=-72.7788315,cover=1107
				16:leaf=-67.7541962,cover=438
			8:[f6<3253.93994] yes=17,no=18,missing=18,gain=43685376,cover=224
				17:leaf=-52.8085251,cover=64
				18:leaf=-41.0941238,cover=160
		4:[f6<12961.2061] yes=9,no=10,missing=10,gain=3.68918144e+09,cover=825
			9:[f6<8499.12305] yes=19,no=20,missing=20,gain=1.2286889e+09,cover=741
				19:[f6<6932.84326] yes=23,no=24,missing=24,gain=134586176,cover=373
					23:[f6<5739.10205] yes=31,no=32,missing=32,gain=16770304,cover=190
						31:leaf=-28.7286243,cover=38
						32:leaf=-20.3785763,cover=152
					24:[f6<7740.41553] yes=33,no=34,missing=34,gain=18076224,cover=183
						33:leaf=-13.2994041,cover=90
						34:leaf=-6.87417269,cover=93
				20:[f6<10215.6699] yes=25,no=26,missing=26,gain=196112608,cover=368
					25:[f6<9421.65234] yes=35,no=36,missing=36,gain=20460462,cover=212
						35:leaf=0.772929013,cover=135
						36:leaf=7.21289349,cover=77
					26:[f6<10946.9209] yes=37,no=38,missing=38,gain=26927008,cover=156
						37:leaf=13.3641233,cover=77
						38:leaf=22.0957222,cover=79
			10:[f6<17072.8105] yes=21,no=22,missing=22,gain=285134592,cover=84
				21:[f6<13795.5264] yes=27,no=28,missing=28,gain=10502656,cover=48
					27:leaf=34.2204056,cover=13
					28:leaf=52.4092255,cover=35
				22:[f5<19190.0371] yes=29,no=30,missing=30,gain=1587968,cover=36
					29:leaf=74.5910263,cover=23
					30:leaf=104.013588,cover=13
	2:[f6<44365.1836] yes=5,no=6,missing=6,gain=1.44951869e+10,cover=390
		5:[f6<36870.0586] yes=11,no=12,missing=12,gain=906665984,cover=182
			11:leaf=201.684769,cover=63
			12:leaf=261.409851,cover=119
		6:[f6<53663.6016] yes=13,no=14,missing=14,gain=2.37384499e+09,cover=208
			13:leaf=325.532623,cover=108
			14:leaf=409.771942,cover=100
booster[19]:
0:[f0<22882.1582] yes=1,no=2,missing=2,gain=4.06924296e+11,cover=3014
	1:[f5<4603.02979] yes=3,no=4,missing=4,gain=2.82417971e+10,cover=2629
		3:[f5<1754.51001] yes=7,no=8,missing=8,gain=1.26613914e+09,cover=1790
			7:[f5<357.389008] yes=15,no=16,missing=16,gain=27590656,cover=1568
				15:leaf=-72.7772141,cover=835
				16:leaf=-68.3212738,cover=733
			8:[f4<3236.70093] yes=17,no=18,missing=18,gain=34454016,cover=222
				17:leaf=-52.0090027,cover=68
				18:leaf=-41.3297501,cover=154
		4:[f5<12958.5371] yes=9,no=10,missing=10,gain=3.30916378e+09,cover=839
			9:[f5<8497.41113] yes=19,no=20,missing=20,gain=1.2444823e+09,cover=757
				19:[f5<6840.93604] yes=23,no=24,missing=24,gain=151748736,cover=393
					23:[f5<5734.73193] yes=29,no=30,missing=30,gain=21930240,cover=186
						29:leaf=-29.1366692,cover=46
						30:leaf=-20.376646,cover=140
					24:[f5<7738.84717] yes=31,no=32,missing=32,gain=19380432,cover=207
						31:leaf=-13.2589207,cover=103
						32:leaf=-7.0089798,cover=104
				20:[f5<10313.4434] yes=25,no=26,missing=26,gain=203207968,cover=364
					25:[f5<9342.54004] yes=33,no=34,missing=34,gain=23784196,cover=218
						33:leaf=0.326357901,cover=119
						34:leaf=6.94520903,cover=99
					26:[f5<10934.4199] yes=35,no=36,missing=36,gain=19818560,cover=146
						35:leaf=13.7244263,cover=60
						36:leaf=21.7764416,cover=86
			10:[f5<16989.1621] yes=21,no=22,missing=22,gain=190349056,cover=82
				21:[f5<14821.9834] yes=27,no=28,missing=28,gain=20470400,cover=50
					27:[f3<11311.2402] yes=37,no=38,missing=38,gain=3957312,cover=23
						37:leaf=7.78386211,cover=1
						38:leaf=38.7923126,cover=22
					28:leaf=56.2124557,cover=27
				22:leaf=82.4830856,cover=32
	2:[f5<44365.1836] yes=5,no=6,missing=6,gain=1.39546132e+10,cover=385
		5:[f5<36835.9023] yes=11,no=12,missing=12,gain=803225600,cover=186
			11:leaf=201.835175,cover=70
			12:leaf=257.419647,cover=116
		6:[f5<50795.7031] yes=13,no=14,missing=14,gain=2.25214464e+09,cover=199
			13:leaf=316.385986,cover=96
			14:leaf=400.537109,cover=103
booster[20]:
0:[f3<23516.4023] yes=1,no=2,missing=2,gain=3.91355924e+11,cover=2984
	1:[f6<4609.5127] yes=3,no=4,missing=4,gain=2.75091169e+10,cover=2603
		3:[f5<1754.51001] yes=7,no=8,missing=8,gain=1.11817523e+09,cover=1766
			7:[f6<363.07901] yes=15,no=16,missing=16,gain=25919488,cover=1560
				15:leaf=-71.9803009,cover=852
				16:leaf=-67.5811996,cover=708
			8:[f5<3244.86597] yes=17,no=18,missing=18,gain=32936960,cover=206
				17:leaf=-51.7437477,cover=68
				18:leaf=-41.0316582,cover=138
		4:[f6<12961.2061] yes=9,no=10,missing=10,gain=3.22785997e+09,cover=837
			9:[f6<8499.12305] yes=19,no=20,missing=20,gain=1.22206618e+09,cover=760
				19:[f6<6844.30176] yes=23,no=24,missing=24,gain=147935360,cover=392
					23:[f6<5739.10205] yes=29,no=30,missing=30,gain=23407360,cover=187
						29:leaf=-29.0288467,cover=47
						30:leaf=-20.1166096,cover=140
					24:[f6<7740.41553] yes=31,no=32,missing=32,gain=19969968,cover=205
						31:leaf=-13.1246786,cover=107
						32:leaf=-6.74992466,cover=98
				20:[f6<9917.35938] yes=25,no=26,missing=26,gain=188838656,cover=368
					25:[f6<9236.7041] yes=33,no=34,missing=34,gain=13335004,cover=189
						33:leaf=-0.36788252,cover=95
						34:leaf=4.92697811,cover=94
					26:[f6<10946.9209] yes=35,no=36,missing=36,gain=38044384,cover=179
						35:leaf=11.9951038,cover=94
						36:leaf=21.5007839,cover=85
			10:[f6<18413.5273] yes=21,no=22,missing=22,gain=260779776,cover=77
				21:[f6<14938.1768] yes=27,no=28,missing=28,gain=29131392,cover=54
					27:[f0<9667.57812] yes=37,no=38,missing=38,gain=2170528,cover=24
						37:leaf=9.40021992,cover=1
						38:leaf=39.0535965,cover=23
					28:leaf=57.9471016,cover=30
				22:leaf=92.480629,cover=23
	2:[f6<46888.2227] yes=5,no=6,missing=6,gain=1.44419717e+10,cover=381
		5:[f6<36870.0586] yes=11,no=12,missing=12,gain=1.53348506e+09,cover=223
			11:leaf=198.938919,cover=73
			12:leaf=264.365692,cover=150
		6:[f6<55102.1719] yes=13,no=14,missing=14,gain=1.11062221e+09,cover=158
			13:leaf=330.059326,cover=78
			14:leaf=408.935028,cover=80
booster[21]:
0:[f0<22882.1582] yes=1,no=2,missing=2,gain=3.89168824e+11,cover=3006
	1:[f6<5066.74023] yes=3,no=4,missing=4,gain=2.744798e+10,cover=2624
		3:[f5<1754.51001] yes=7,no=8,missing=8,gain=1.26346035e+09,cover=1808
			7:[f6<394.709015] yes=15,no=16,missing=16,gain=28286976,cover=1579
				15:leaf=-71.1123199,cover=926
				16:leaf=-66.6517944,cover=653
			8:[f3<3218.02002] yes=17,no=18,missing=18,gain=42496000,cover=229
				17:leaf=-51.2024536,cover=72
				18:leaf=-40.0957947,cover=157
		4:[f6<12961.2061] yes=9,no=10,missing=10,gain=3.43437747e+09,cover=816
			9:[f6<8791.79395] yes=19,no=20,missing=20,gain=1.1782121e+09,cover=732
				19:[f6<7317.33008] yes=25,no=26,missing=26,gain=168638720,cover=405
					25:[f6<6284.92822] yes=33,no=34,missing=34,gain=26828416,cover=231
						33:leaf=-25.3480568,cover=75
						34:leaf=-17.581234,cover=156
					26:[f6<8042.73633] yes=35,no=36,missing=36,gain=17990936,cover=174
						35:leaf=-10.587594,cover=80
						36:leaf=-4.0836792,cover=94
				20:[f6<10566.4941] yes=27,no=28,missing=28,gain=168374400,cover=327
					27:[f6<9614.94336] yes=37,no=38,missing=38,gain=21090152,cover=208
						37:leaf=2.41850424,cover=112
						38:leaf=8.81869125,cover=96
					28:[f6<11446.4688] yes=39,no=40,missing=40,gain=10114944,cover=119
						39:leaf=17.0700836,cover=66
						40:leaf=23.9632339,cover=53
			10:[f6<17072.8105] yes=21,no=22,missing=22,gain=259926784,cover=84
				21:[f6<13795.5264] yes=29,no=30,missing=30,gain=11372288,cover=50
					29:leaf=33.5212402,cover=13
					30:leaf=51.6669655,cover=37
				22:[f6<19201.2754] yes=31,no=32,missing=32,gain=4097792,cover=34
					31:leaf=71.7978668,cover=21
					32:leaf=101.516823,cover=13
	2:[f6<44365.1836] yes=5,no=6,missing=6,gain=1.37158984e+10,cover=382
		5:[f6<36870.0586] yes=11,no=12,missing=12,gain=806739968,cover=188
			11:[f3<23516.4023] yes=23,no=24,missing=24,gain=5220352,cover=72
				23:leaf=83.5698547,cover=2
				24:leaf=200.546112,cover=70
			12:leaf=253.263626,cover=116
		6:[f6<50795.7031] yes=13,no=14,missing=14,gain=2.17414042e+09,cover=194
			13:leaf=309.472382,cover=89
			14:leaf=393.546234,cover=105
booster[22]:
0:[f6<23844.5684] yes=1,no=2,missing=2,gain=3.70759631e+11,cover=2979
	1:[f6<5066.74023] yes=3,no=4,missing=4,gain=2.67073987e+10,cover=2605
		3:[f6<2204.82007] yes=7,no=8,missing=8,gain=1.33354291e+09,cover=1797
			7:[f6<685.822998] yes=15,no=16,missing=16,gain=33906688,cover=1566
				15:leaf=-69.4621201,cover=1347
				16:leaf=-62.921154,cover=219
			8:[f6<3583.21997] yes=17,no=18,missing=18,gain=34594816,cover=231
				17:leaf=-48.5207748,cover=85
				18:leaf=-38.6771431,cover=146
		4:[f6<12961.2061] yes=9,no=10,missing=10,gain=3.52120371e+09,cover=808
			9:[f6<8732.1543] yes=19,no=20,missing=20,gain=1.0871927e+09,cover=722
				19:[f6<6932.84326] yes=23,no=24,missing=24,gain=151085888,cover=390
					23:[f6<5991.38281] yes=29,no=30,missing=30,gain=17069504,cover=180
						29:leaf=-27.1952534,cover=44
						30:leaf=-19.212986,cover=136
					24:[f6<8042.73633] yes=31,no=32,missing=32,gain=24293632,cover=210
						31:leaf=-11.5072117,cover=127
						32:leaf=-4.47816515,cover=83
				20:[f6<10215.6699] yes=25,no=26,missing=26,gain=146991104,cover=332
					25:[f6<9533.58008] yes=33,no=34,missing=34,gain=11731148,cover=184
						33:leaf=1.94036543,cover=112
						34:leaf=7.1181407,cover=72
					26:[f6<11446.4688] yes=35,no=36,missing=36,gain=24066976,cover=148
						35:leaf=14.3992853,cover=102
						36:leaf=23.5576,cover=46
			10:[f6<17072.8105] yes=21,no=22,missing=22,gain=224138496,cover=86
				21:[f0<9667.57812] yes=27,no=28,missing=28,gain=7185152,cover=48
					27:leaf=9.18560982,cover=1
					28:leaf=48.4667358,cover=47
				22:leaf=82.7656403,cover=38
	2:[f6<44365.1836] yes=5,no=6,missing=6,gain=1.25219635e+10,cover=374
		5:[f6<36870.0586] yes=11,no=12,missing=12,gain=776986624,cover=183
			11:leaf=195.871109,cover=70
			12:leaf=250.523163,cover=113
		6:[f6<53663.6016] yes=13,no=14,missing=14,gain=1.84590336e+09,cover=191
			13:leaf=311.041412,cover=102
			14:leaf=390.928375,cover=89
booster[23]:
0:[f3<23516.4023] yes=1,no=2,missing=2,gain=3.75444668e+11,cover=2968
	1:[f5<5055.4834] yes=3,no=4,missing=4,gain=2.57892311e+10,cover=2590
		3:[f4<1741.64001] yes=7,no=8,missing=8,gain=1.2157911e+09,cover=1783
			7:[f5<527.39502] yes=15,no=16,missing=16,gain=28426240,cover=1554
				15:leaf=-69.2478714,cover=1105
				16:leaf=-64.4219818,cover=449
			8:[f2<3153.86011] yes=17,no=18,missing=18,gain=45976064,cover=229
				17:leaf=-50.3388748,cover=73
				18:[f5<4224.81006] yes=25,no=26,missing=26,gain=901376,cover=156
					25:leaf=-40.5512009,cover=120
					26:leaf=-33.0266342,cover=36
		4:[f5<12958.5371] yes=9,no=10,missing=10,gain=3.26999654e+09,cover=807
			9:[f5<8497.41113] yes=19,no=20,missing=20,gain=1.04074016e+09,cover=727
				19:[f5<7178.05859] yes=27,no=28,missing=28,gain=111508160,cover=362
					27:[f5<5973.93555] yes=35,no=36,missing=36,gain=18876608,cover=204
						35:leaf=-26.5654907,cover=42
						36:leaf=-18.357151,cover=162
					28:[f5<7738.84717] yes=37,no=38,missing=38,gain=11847672,cover=158
						37:leaf=-12.0240231,cover=69
						38:leaf=-6.35961914,cover=89
				20:[f5<10313.4434] yes=29,no=30,missing=30,gain=160319744,cover=365
					29:[f5<9293.97266] yes=39,no=40,missing=40,gain=20539244,cover=224
						39:leaf=0.0956725404,cover=105
						40:leaf=6.15276909,cover=119
					30:[f5<10934.4199] yes=41,no=42,missing=42,gain=11783392,cover=141
						41:leaf=13.1539679,cover=61
						42:leaf=19.6080856,cover=80
			10:[f5<14821.9834] yes=21,no=22,missing=22,gain=201512448,cover=80
				21:[f4<11530.9189] yes=31,no=32,missing=32,gain=4036256,cover=24
					31:leaf=7.39983368,cover=1
					32:leaf=37.919426,cover=23
				22:[f5<19190.0371] yes=33,no=34,missing=34,gain=37114880,cover=56
					33:leaf=65.586853,cover=42
					34:leaf=94.2457581,cover=14
	2:[f5<47498.6641] yes=5,no=6,missing=6,gain=1.26754816e+10,cover=378
		5:[f5<40491.043] yes=11,no=12,missing=12,gain=1.69355674e+09,cover=224
			11:[f2<30851.9492] yes=23,no=24,missing=24,gain=207613952,cover=119
				23:leaf=133.008881,cover=9
				24:leaf=217.466248,cover=110
			12:leaf=275.919769,cover=105
		6:[f5<53663.6016] yes=13,no=14,missing=14,gain=391036928,cover=154
			13:leaf=318.626312,cover=56
			14:leaf=387.421997,cover=98
booster[24]:
0:[f0<22882.1582] yes=1,no=2,missing=2,gain=3.76978473e+11,cover=3029
	1:[f5<4603.02979] yes=3,no=4,missing=4,gain=2.54906122e+10,cover=2640
		3:[f5<1754.51001] yes=7,no=8,missing=8,gain=1.12321331e+09,cover=1792
			7:[f5<346.653015] yes=15,no=16,missing=16,gain=28573696,cover=1573
				15:leaf=-69.2462082,cover=841
				16:leaf=-64.9065399,cover=732
			8:[f4<3236.70093] yes=17,no=18,missing=18,gain=35308288,cover=219
				17:leaf=-49.8138123,cover=68
				18:leaf=-39.1997223,cover=151
		4:[f5<12958.5371] yes=9,no=10,missing=10,gain=2.97625933e+09,cover=848
			9:[f5<8497.41113] yes=19,no=20,missing=20,gain=1.17303283e+09,cover=771
				19:[f5<6840.93604] yes=25,no=26,missing=26,gain=126619648,cover=393
					25:[f5<5734.73193] yes=31,no=32,missing=32,gain=21956032,cover=196
						31:leaf=-27.5828609,cover=50
						32:leaf=-19.2099571,cover=146
					26:[f5<7738.84717] yes=33,no=34,missing=34,gain=18248288,cover=197
						33:leaf=-12.8455238,cover=107
						34:leaf=-6.60206175,cover=90
				20:[f5<10313.4434] yes=27,no=28,missing=28,gain=187536704,cover=378
					27:[f5<9235.92969] yes=35,no=36,missing=36,gain=24054584,cover=231
						35:leaf=-0.513176918,cover=99
						36:leaf=5.99227667,cover=132
					28:[f5<10934.4199] yes=37,no=38,missing=38,gain=15047328,cover=147
						37:leaf=13.3410997,cover=60
						38:leaf=20.4373341,cover=87
			10:[f5<16989.1621] yes=21,no=22,missing=22,gain=186632960,cover=77
				21:[f5<14821.9834] yes=29,no=30,missing=30,gain=14605312,cover=41
					29:[f4<11530.9189] yes=39,no=40,missing=40,gain=2986160,cover=20
						39:leaf=7.36283684,cover=1
						40:leaf=35.3991508,cover=19
					30:leaf=52.2015839,cover=21
				22:leaf=78.2590714,cover=36
	2:[f5<44365.1836] yes=5,no=6,missing=6,gain=1.32699914e+10,cover=389
		5:[f5<36835.9023] yes=11,no=12,missing=12,gain=688594944,cover=186
			11:[f3<23516.4023] yes=23,no=24,missing=24,gain=7772160,cover=74
				23:leaf=81.4556198,cover=2
				24:leaf=196.425156,cover=72
			12:leaf=246.030777,cover=112
		6:[f5<53663.6016] yes=13,no=14,missing=14,gain=2.28823859e+09,cover=203
			13:leaf=304.58493,cover=103
			14:leaf=387.065918,cover=100
booster[25]:
0:[f5<23801.6406] yes=1,no=2,missing=2,gain=3.71059589e+11,cover=3000
	1:[f5<4603.02979] yes=3,no=4,missing=4,gain=2.48800584e+10,cover=2606
		3:[f5<1754.51001] yes=7,no=8,missing=8,gain=1.11239168e+09,cover=1800
			7:[f5<386.954987] yes=15,no=16,missing=16,gain=27287552,cover=1575
				15:leaf=-68.3686295,cover=913
				16:leaf=-64.0518112,cover=662
			8:[f3<3218.02002] yes=17,no=18,missing=18,gain=33579776,cover=225
				17:leaf=-49.2482224,cover=71
				18:leaf=-39.0116234,cover=154
		4:[f5<12958.5371] yes=9,no=10,missing=10,gain=3.13435955e+09,cover=806
			9:[f5<8497.41113] yes=19,no=20,missing=20,gain=1.0882496e+09,cover=726
				19:[f5<6840.93604] yes=23,no=24,missing=24,gain=121212928,cover=370
					23:[f5<5734.73193] yes=31,no=32,missing=32,gain=18503296,cover=178
						31:leaf=-27.3454208,cover=44
						32:leaf=-19.0896854,cover=134
					24:[f5<7738.84717] yes=33,no=34,missing=34,gain=16773040,cover=192
						33:leaf=-12.5570879,cover=101
						34:leaf=-6.50516224,cover=91
				20:[f5<10365.9844] yes=25,no=26,missing=26,gain=168026208,cover=356
					25:[f5<9342.54004] yes=35,no=36,missing=36,gain=26605196,cover=227
						35:leaf=0.283187509,cover=107
						36:leaf=7.13082218,cover=120
					26:[f5<10934.4199] yes=37,no=38,missing=38,gain=11252704,cover=129
						37:leaf=13.7509499,cover=48
						38:leaf=20.6360073,cover=81
			10:[f5<16989.1621] yes=21,no=22,missing=22,gain=203985408,cover=80
				21:[f5<14821.9834] yes=27,no=28,missing=28,gain=11428416,cover=45
					27:[f4<11530.9189] yes=39,no=40,missing=40,gain=3901344,cover=21
						39:leaf=7.32602024,cover=1
						40:leaf=37.4810295,cover=20
					28:leaf=53.079937,cover=24
				22:[f4<19169.3379] yes=29,no=30,missing=30,gain=14019840,cover=35
					29:leaf=66.7579193,cover=21
					30:leaf=96.2770462,cover=14
	2:[f5<44365.1836] yes=5,no=6,missing=6,gain=1.28963379e+10,cover=394
		5:[f5<36835.9023] yes=11,no=12,missing=12,gain=678494208,cover=192
			11:leaf=191.955017,cover=72
			12:leaf=242.898514,cover=120
		6:[f5<53663.6016] yes=13,no=14,missing=14,gain=1.58918246e+09,cover=202
			13:leaf=306.612488,cover=108
			14:leaf=380.314606,cover=94
booster[26]:
0:[f0<22882.1582] yes=1,no=2,missing=2,gain=3.57663343e+11,cover=3034
	1:[f5<4603.02979] yes=3,no=4,missing=4,gain=2.42357494e+10,cover=2643
		3:[f3<1735.57996] yes=7,no=8,missing=8,gain=1.08602982e+09,cover=1814
			7:[f4<525.580017] yes=15,no=16,missing=16,gain=27869184,cover=1588
				15:leaf=-67.1935577,cover=1147
				16:leaf=-62.4671097,cover=441
			8:[f4<3236.70093] yes=17,no=18,missing=18,gain=34217472,cover=226
				17:leaf=-48.951458,cover=71
				18:leaf=-38.6896515,cover=155
		4:[f5<12958.5371] yes=9,no=10,missing=10,gain=2.77453875e+09,cover=829
			9:[f5<8791.64062] yes=19,no=20,missing=20,gain=1.10945434e+09,cover=754
				19:[f5<6840.93604] yes=25,no=26,missing=26,gain=171602368,cover=424
					25:[f5<5734.73193] yes=33,no=34,missing=34,gain=21767744,cover=195
						33:leaf=-27.3225994,cover=48
						34:leaf=-18.8871975,cover=147
					26:[f5<7738.84717] yes=35,no=36,missing=36,gain=26123904,cover=229
						35:leaf=-12.1813221,cover=98
						36:leaf=-5.29755116,cover=131
				20:[f5<10541.3223] yes=27,no=28,missing=28,gain=140889728,cover=330
					27:[f5<9524.43359] yes=37,no=38,missing=38,gain=21464128,cover=209
						37:leaf=2.00606561,cover=106
						38:leaf=8.4253931,cover=103
					28:[f5<11544.1377] yes=39,no=40,missing=40,gain=6832896,cover=121
						39:leaf=16.5179234,cover=80
						40:leaf=22.6269817,cover=41
			10:[f5<16989.1621] yes=21,no=22,missing=22,gain=186938880,cover=75
				21:[f5<14821.9834] yes=29,no=30,missing=30,gain=28373120,cover=44
					29:[f4<11530.9189] yes=41,no=42,missing=42,gain=2877088,cover=23
						41:leaf=7.28938961,cover=1
						42:leaf=34.8546867,cover=22
					30:leaf=54.4534607,cover=21
				22:[f0<14181.5322] yes=31,no=32,missing=32,gain=13884928,cover=31
					31:leaf=36.3075676,cover=3
					32:leaf=82.4278183,cover=28
	2:[f5<44365.1836] yes=5,no=6,missing=6,gain=1.24110111e+10,cover=391
		5:[f5<36835.9023] yes=11,no=12,missing=12,gain=694132736,cover=196
			11:[f5<31570.1699] yes=23,no=24,missing=24,gain=12441600,cover=71
				23:leaf=140.612366,cover=13
				24:leaf=197.42421,cover=58
			12:leaf=240.024918,cover=125
		6:[f5<53663.6016] yes=13,no=14,missing=14,gain=1.69864397e+09,cover=195
			13:leaf=300.191925,cover=101
			14:leaf=376.163391,cover=94
booster[27]:
0:[f3<23516.4023] yes=1,no=2,missing=2,gain=3.55737633e+11,cover=2983
	1:[f5<4603.02979] yes=3,no=4,missing=4,gain=2.37112689e+10,cover=2589
		3:[f0<1596.71997] yes=7,no=8,missing=8,gain=1.06646323e+09,cover=1757
			7:[f5<346.653015] yes=15,no=16,missing=16,gain=24051712,cover=1534
				15:leaf=-67.1816254,cover=815
				16:leaf=-63.0083084,cover=719
			8:[f5<3244.86597] yes=17,no=18,missing=18,gain=34445568,cover=223
				17:leaf=-48.3568726,cover=70
				18:leaf=-38.0540504,cover=153
		4:[f5<12958.5371] yes=9,no=10,missing=10,gain=2.82806272e+09,cover=832
			9:[f5<8497.41113] yes=19,no=20,missing=20,gain=1.06002515e+09,cover=753
				19:[f5<6840.93604] yes=25,no=26,missing=26,gain=133617536,cover=391
					25:[f5<5734.73193] yes=33,no=34,missing=34,gain=16352320,cover=191
						33:leaf=-26.4391956,cover=47
						34:leaf=-18.866457,cover=144
					26:[f5<7738.84717] yes=35,no=36,missing=36,gain=19875664,cover=200
						35:leaf=-12.2215729,cover=101
						36:leaf=-5.81903934,cover=99
				20:[f5<10123.9941] yes=27,no=28,missing=28,gain=186800256,cover=362
					27:[f5<9235.92969] yes=37,no=38,missing=38,gain=16909728,cover=200
						37:leaf=-0.533512652,cover=101
						38:leaf=5.26273537,cover=99
					28:[f5<10934.4199] yes=39,no=40,missing=40,gain=28234528,cover=162
						39:leaf=11.9425917,cover=74
						40:leaf=20.6746521,cover=88
			10:[f5<16989.1621] yes=21,no=22,missing=22,gain=174197760,cover=79
				21:[f5<14821.9834] yes=29,no=30,missing=30,gain=26769920,cover=47
					29:[f4<11530.9189] yes=41,no=42,missing=42,gain=2809200,cover=22
						41:leaf=7.25294399,cover=1
						42:leaf=34.5977135,cover=21
					30:leaf=53.2687225,cover=25
				22:[f0<14181.5322] yes=31,no=32,missing=32,gain=1618560,cover=32
					31:leaf=32.6250305,cover=2
					32:leaf=79.530777,cover=30
	2:[f5<44365.1836] yes=5,no=6,missing=6,gain=1.32303094e+10,cover=394
		5:[f5<36835.9023] yes=11,no=12,missing=12,gain=823697408,cover=187
			11:[f4<23733.0312] yes=23,no=24,missing=24,gain=16433152,cover=72
				23:leaf=90.1166687,cover=3
				24:leaf=185.997925,cover=69
			12:leaf=237.031952,cover=115
		6:[f5<50795.7031] yes=13,no=14,missing=14,gain=1.97173248e+09,cover=207
			13:leaf=294.751617,cover=99
			14:leaf=371.837463,cover=108
booster[28]:
0:[f1<23113.9922] yes=1,no=2,missing=2,gain=3.5928005e+11,cover=3055
	1:[f5<4603.02979] yes=3,no=4,missing=4,gain=2.39461949e+10,cover=2653
		3:[f4<1741.64001] yes=7,no=8,missing=8,gain=1.04850227e+09,cover=1814
			7:[f4<525.580017] yes=15,no=16,missing=16,gain=25886720,cover=1591
				15:leaf=-65.8661499,cover=1156
				16:leaf=-61.2442894,cover=435
			8:[f5<3244.86597] yes=17,no=18,missing=18,gain=33882624,cover=223
				17:leaf=-47.9273872,cover=70
				18:leaf=-37.7117119,cover=153
		4:[f5<12958.5371] yes=9,no=10,missing=10,gain=3.08619904e+09,cover=839
			9:[f5<8497.41113] yes=19,no=20,missing=20,gain=995884480,cover=750
				19:[f5<6840.93604] yes=23,no=24,missing=24,gain=112013696,cover=393
					23:[f5<5973.93555] yes=31,no=32,missing=32,gain=16867264,cover=187
						31:leaf=-25.4086761,cover=55
						32:leaf=-18.1089535,cover=132
					24:[f5<7738.84717] yes=33,no=34,missing=34,gain=18388976,cover=206
						33:leaf=-12.4157305,cover=110
						34:leaf=-6.30825567,cover=96
				20:[f5<10123.9941] yes=25,no=26,missing=26,gain=154006976,cover=357
					25:[f5<9235.92969] yes=35,no=36,missing=36,gain=12886521,cover=198
						35:leaf=-0.408234209,cover=91
						36:leaf=4.69574213,cover=107
					26:[f5<10934.4199] yes=37,no=38,missing=38,gain=20321888,cover=159
						37:leaf=11.7354774,cover=80
						38:leaf=19.2503948,cover=79
			10:[f5<16989.1621] yes=21,no=22,missing=22,gain=222984192,cover=89
				21:[f5<14821.9834] yes=27,no=28,missing=28,gain=11032512,cover=53
					27:[f4<11530.9189] yes=39,no=40,missing=40,gain=3718336,cover=28
						39:leaf=7.21667957,cover=1
						40:leaf=36.636898,cover=27
					28:leaf=50.5944328,cover=25
				22:[f0<14181.5322] yes=29,no=30,missing=30,gain=988416,cover=36
					29:leaf=32.8601494,cover=2
					30:leaf=79.4290009,cover=34
	2:[f5<44365.1836] yes=5,no=6,missing=6,gain=1.12730767e+10,cover=402
		5:[f5<36835.9023] yes=11,no=12,missing=12,gain=646946816,cover=189
			11:leaf=184.202438,cover=61
			12:leaf=236.158615,cover=128
		6:[f5<50795.7031] yes=13,no=14,missing=14,gain=1.93049395e+09,cover=213
			13:leaf=290.369904,cover=105
			14:leaf=365.254608,cover=108
booster[29]:
0:[f0<22882.1582] yes=1,no=2,missing=2,gain=3.47043299e+11,cover=3009
	1:[f6<4609.5127] yes=3,no=4,missing=4,gain=2.30661693e+10,cover=2610
		3:[f5<1754.51001] yes=7,no=8,missing=8,gain=1.00110746e+09,cover=1772
			7:[f6<685.822998] yes=15,no=16,missing=16,gain=29315072,cover=1554
				15:leaf=-64.7378616,cover=1326
				16:leaf=-58.7459221,cover=228
			8:[f5<3244.86597] yes=17,no=18,missing=18,gain=28189440,cover=218
				17:leaf=-47.1176758,cover=68
				18:leaf=-37.41008,cover=150
		4:[f6<11943.6299] yes=9,no=10,missing=10,gain=2.86806042e+09,cover=838
			9:[f6<8499.12305] yes=19,no=20,missing=20,gain=972060224,cover=743
				19:[f6<6733.74756] yes=23,no=24,missing=24,gain=116823488,cover=383
					23:[f6<5739.10205] yes=31,no=32,missing=32,gain=17648704,cover=177
						31:leaf=-26.4352798,cover=51
						32:leaf=-18.7023449,cover=126
					24:[f6<7559.66748] yes=33,no=34,missing=34,gain=18393024,cover=206
						33:leaf=-12.8281641,cover=106
						34:leaf=-6.7222538,cover=100
				20:[f6<9917.35938] yes=25,no=26,missing=26,gain=138524464,cover=360
					25:[f6<9236.7041] yes=35,no=36,missing=36,gain=11545582,cover=201
						35:leaf=-0.200922996,cover=100
						36:leaf=4.57886505,cover=101
					26:[f6<11123.9502] yes=37,no=38,missing=38,gain=21308352,cover=159
						37:leaf=11.8919067,cover=106
						38:leaf=19.9760685,cover=53
			10:[f6<17072.8105] yes=21,no=22,missing=22,gain=255582208,cover=95
				21:[f6<13795.5264] yes=27,no=28,missing=28,gain=34564288,cover=61
					27:[f3<10920.9805] yes=39,no=40,missing=40,gain=211504,cover=25
						39:leaf=8.3907032,cover=1
						40:leaf=29.7597275,cover=24
					28:leaf=47.5001602,cover=36
				22:[f6<19201.2754] yes=29,no=30,missing=30,gain=1356800,cover=34
					29:leaf=64.6226425,cover=22
					30:leaf=91.0311279,cover=12
	2:[f6<44365.1836] yes=5,no=6,missing=6,gain=1.23292221e+10,cover=399
		5:[f6<34698.3047] yes=11,no=12,missing=12,gain=770752512,cover=187
			11:leaf=169.383545,cover=47
			12:leaf=227.921738,cover=140
		6:[f6<55102.1719] yes=13,no=14,missing=14,gain=2.03471258e+09,cover=212
			13:leaf=294.965668,cover=124
			14:leaf=372.310211,cover=88
booster[30]:
0:[f3<23516.4023] yes=1,no=2,missing=2,gain=3.24634444e+11,cover=3003
	1:[f6<4609.5127] yes=3,no=4,missing=4,gain=2.28135035e+10,cover=2623
		3:[f4<1741.64001] yes=7,no=8,missing=8,gain=1.01366579e+09,cover=1788
			7:[f6<347.332001] yes=15,no=16,missing=16,gain=25882624,cover=1561
				15:leaf=-65.2402878,cover=824
				16:leaf=-61.1248894,cover=737
			8:[f6<3253.93994] yes=17,no=18,missing=18,gain=30361856,cover=227
				17:leaf=-46.7798615,cover=72
				18:leaf=-37.1014557,cover=155
		4:[f6<12961.2061] yes=9,no=10,missing=10,gain=2.88405094e+09,cover=835
			9:[f6<8499.12305] yes=19,no=20,missing=20,gain=1.01785242e+09,cover=753
				19:[f6<6733.74756] yes=25,no=26,missing=26,gain=118910592,cover=388
					25:[f6<5991.38281] yes=33,no=34,missing=34,gain=13621632,cover=173
						33:leaf=-25.1583729,cover=57
						34:leaf=-18.3648319,cover=116
					26:[f6<7559.66748] yes=35,no=36,missing=36,gain=17683680,cover=215
						35:leaf=-12.3709688,cover=109
						36:leaf=-6.51699305,cover=106
				20:[f6<9917.35938] yes=27,no=28,missing=28,gain=163312544,cover=365
					27:[f6<9187.07031] yes=37,no=38,missing=38,gain=10633780,cover=185
						37:leaf=-0.636278033,cover=82
						38:leaf=4.17278147,cover=103
					28:[f6<10946.9209] yes=39,no=40,missing=40,gain=29273472,cover=180
						39:leaf=11.3478737,cover=94
						40:leaf=19.6947784,cover=86
			10:[f6<17072.8105] yes=21,no=22,missing=22,gain=190017536,cover=82
				21:[f6<13795.5264] yes=29,no=30,missing=30,gain=13562304,cover=46
					29:[f2<11517.1299] yes=41,no=42,missing=42,gain=1266648,cover=12
						41:leaf=11.6345539,cover=2
						42:leaf=31.4098911,cover=10
					30:leaf=47.6878357,cover=34
				22:[f6<19201.2754] yes=31,no=32,missing=32,gain=3160832,cover=36
					31:leaf=64.8895187,cover=23
					32:leaf=90.9742584,cover=13
	2:[f6<48144.1445] yes=5,no=6,missing=6,gain=1.15886981e+10,cover=380
		5:[f6<40491.043] yes=11,no=12,missing=12,gain=1.87366605e+09,cover=244
			11:[f6<33846.0078] yes=23,no=24,missing=24,gain=122355712,cover=126
				23:leaf=164.88652,cover=36
				24:leaf=208.933197,cover=90
			12:leaf=260.188477,cover=118
		6:[f6<55102.1719] yes=13,no=14,missing=14,gain=149045248,cover=136
			13:leaf=307.009277,cover=55
			14:leaf=370.625885,cover=81
booster[31]:
0:[f4<23733.0312] yes=1,no=2,missing=2,gain=3.34236713e+11,cover=3043
	1:[f6<4609.5127] yes=3,no=4,missing=4,gain=2.26885755e+10,cover=2645
		3:[f6<1780.68994] yes=7,no=8,missing=8,gain=978931712,cover=1797
			7:[f6<320.040985] yes=15,no=16,missing=16,gain=25653248,cover=1571
				15:leaf=-64.6707916,cover=804
				16:leaf=-60.604847,cover=767
			8:[f4<3236.70093] yes=17,no=18,missing=18,gain=31522816,cover=226
				17:leaf=-46.3885498,cover=75
				18:leaf=-36.7022324,cover=151
		4:[f6<11943.6299] yes=9,no=10,missing=10,gain=2.81445453e+09,cover=848
			9:[f6<8499.12305] yes=19,no=20,missing=20,gain=956977536,cover=753
				19:[f6<6844.30176] yes=25,no=26,missing=26,gain=104065216,cover=389
					25:[f6<5991.38281] yes=33,no=34,missing=34,gain=15953408,cover=185
						33:leaf=-24.9262695,cover=54
						34:leaf=-17.7627563,cover=131
					26:[f6<8042.73633] yes=35,no=36,missing=36,gain=14165184,cover=204
						35:leaf=-11.2094164,cover=146
						36:leaf=-5.22634935,cover=58
				20:[f6<9917.35938] yes=27,no=28,missing=28,gain=139829664,cover=364
					27:[f6<9187.07031] yes=37,no=38,missing=38,gain=10623663,cover=194
						37:leaf=-0.512723863,cover=84
						38:leaf=4.19536924,cover=110
					28:[f6<10946.9209] yes=39,no=40,missing=40,gain=19684480,cover=170
						39:leaf=11.2916737,cover=94
						40:leaf=18.4509373,cover=76
			10:[f6<15783.7529] yes=21,no=22,missing=22,gain=222601984,cover=95
				21:[f6<13795.5264] yes=29,no=30,missing=30,gain=16097280,cover=45
					29:[f4<11312.6631] yes=41,no=42,missing=42,gain=891472,cover=23
						41:leaf=15.1962328,cover=4
						42:leaf=29.64147,cover=19
					30:leaf=43.5852966,cover=22
				22:[f6<19201.2754] yes=31,no=32,missing=32,gain=15062528,cover=50
					31:leaf=60.9848022,cover=38
					32:leaf=86.032608,cover=12
	2:[f6<48144.1445] yes=5,no=6,missing=6,gain=1.27136236e+10,cover=398
		5:[f6<40491.043] yes=11,no=12,missing=12,gain=1.96481024e+09,cover=248
			11:[f6<33846.0078] yes=23,no=24,missing=24,gain=192520192,cover=135
				23:leaf=160.216476,cover=36
				24:leaf=206.187683,cover=99
			12:leaf=258.286743,cover=113
		6:[f6<55102.1719] yes=13,no=14,missing=14,gain=257671168,cover=150
			13:leaf=305.157288,cover=61
			14:leaf=367.709167,cover=89
booster[32]:
0:[f6<23844.5684] yes=1,no=2,missing=2,gain=3.16013183e+11,cover=3042
	1:[f6<4609.5127] yes=3,no=4,missing=4,gain=2.26267095e+10,cover=2655
		3:[f6<1780.68994] yes=7,no=8,missing=8,gain=936173568,cover=1800
			7:[f6<685.822998] yes=15,no=16,missing=16,gain=26730496,cover=1583
				15:leaf=-62.8519363,cover=1363
				16:leaf=-56.9949875,cover=220
			8:[f6<3253.93994] yes=17,no=18,missing=18,gain=29186560,cover=217
				17:leaf=-45.9061775,cover=70
				18:leaf=-36.247242,cover=147
		4:[f6<12961.2061] yes=9,no=10,missing=10,gain=2.86598886e+09,cover=855
			9:[f6<8499.12305] yes=19,no=20,missing=20,gain=988433408,cover=767
				19:[f6<6844.30176] yes=25,no=26,missing=26,gain=108118848,cover=393
					25:[f6<5739.10205] yes=31,no=32,missing=32,gain=13851776,cover=184
						31:leaf=-25.3176918,cover=42
						32:leaf=-17.9907379,cover=142
					26:[f6<7740.41553] yes=33,no=34,missing=34,gain=15441072,cover=209
						33:leaf=-11.8276978,cover=109
						34:leaf=-6.26634836,cover=100
				20:[f6<9917.35938] yes=27,no=28,missing=28,gain=161290688,cover=374
					27:[f6<9127.51855] yes=35,no=36,missing=36,gain=7320971,cover=192
						35:leaf=-0.479540676,cover=71
						36:leaf=3.55316281,cover=121
					28:[f6<10946.9209] yes=37,no=38,missing=38,gain=28389760,cover=182
						37:leaf=11.207346,cover=95
						38:leaf=19.3828297,cover=87
			10:[f6<17072.8105] yes=21,no=22,missing=22,gain=223777536,cover=88
				21:[f6<13795.5264] yes=29,no=30,missing=30,gain=9937792,cover=49
					29:[f2<11517.1299] yes=39,no=40,missing=40,gain=1057664,cover=13
						39:leaf=11.4556799,cover=2
						40:leaf=30.4698162,cover=11
					30:leaf=44.7227669,cover=36
				22:leaf=75.0150681,cover=39
	2:[f6<47498.6641] yes=5,no=6,missing=6,gain=1.12660316e+10,cover=387
		5:[f6<38296.1641] yes=11,no=12,missing=12,gain=1.50480486e+09,cover=234
			11:[f5<31570.1699] yes=23,no=24,missing=24,gain=47155200,cover=94
				23:leaf=134.057571,cover=13
				24:leaf=190.684311,cover=81
			12:leaf=243.553268,cover=140
		6:[f6<55102.1719] yes=13,no=14,missing=14,gain=440172544,cover=153
			13:leaf=297.106628,cover=69
			14:leaf=360.633911,cover=84
booster[33]:
0:[f3<23516.4023] yes=1,no=2,missing=2,gain=3.14653835e+11,cover=3010
	1:[f6<5303.98535] yes=3,no=4,missing=4,gain=2.19451105e+10,cover=2617
		3:[f6<2204.82007] yes=7,no=8,missing=8,gain=1.1022377e+09,cover=1806
			7:[f6<745.049988] yes=15,no=16,missing=16,gain=35954688,cover=1571
				15:leaf=-62.1110306,cover=1374
				16:leaf=-55.592495,cover=197
			8:[f6<3834.29028] yes=17,no=18,missing=18,gain=28766976,cover=235
				17:leaf=-41.7047501,cover=123
				18:leaf=-33.1771317,cover=112
		4:[f6<12961.2061] yes=9,no=10,missing=10,gain=2.87346637e+09,cover=811
			9:[f6<8732.1543] yes=19,no=20,missing=20,gain=871387968,cover=721
				19:[f6<7317.33008] yes=25,no=26,missing=26,gain=103296320,cover=375
					25:[f6<6600.21191] yes=33,no=34,missing=34,gain=15470720,cover=216
						33:leaf=-19.7641335,cover=127
						34:leaf=-13.8496876,cover=89
					26:[f6<8042.73633] yes=35,no=36,missing=36,gain=10483368,cover=159
						35:leaf=-9.40672493,cover=76
						36:leaf=-4.18999243,cover=83
				20:[f6<10371.7725] yes=27,no=28,missing=28,gain=131442464,cover=346
					27:[f6<9533.58008] yes=37,no=38,missing=38,gain=16473504,cover=214
						37:leaf=1.59732413,cover=115
						38:leaf=7.16516781,cover=99
					28:[f6<11446.4688] yes=39,no=40,missing=40,gain=14832608,cover=132
						39:leaf=14.1307945,cover=87
						40:leaf=21.7769375,cover=45
			10:[f6<17072.8105] yes=21,no=22,missing=22,gain=222195200,cover=90
				21:[f6<13795.5264] yes=29,no=30,missing=30,gain=19254464,cover=51
					29:[f2<11517.1299] yes=41,no=42,missing=42,gain=543456,cover=13
						41:leaf=11.3793068,cover=2
						42:leaf=29.1107388,cover=11
					30:leaf=46.2410545,cover=38
				22:[f4<19169.3379] yes=31,no=32,missing=32,gain=9411584,cover=39
					31:leaf=64.6907501,cover=26
					32:leaf=91.2825775,cover=13
	2:[f6<47498.6641] yes=5,no=6,missing=6,gain=1.09985464e+10,cover=393
		5:[f6<37359.332] yes=11,no=12,missing=12,gain=1.5652864e+09,cover=240
			11:[f6<31606.3906] yes=23,no=24,missing=24,gain=68653056,cover=82
				23:leaf=126.737076,cover=12
				24:leaf=185.919052,cover=70
			12:leaf=240.165009,cover=158
		6:[f6<53663.6016] yes=13,no=14,missing=14,gain=228212736,cover=153
			13:leaf=291.207306,cover=56
			14:leaf=351.746948,cover=97
booster[34]:
0:[f5<23801.6406] yes=1,no=2,missing=2,gain=3.07758367e+11,cover=3031
	1:[f6<4609.5127] yes=3,no=4,missing=4,gain=2.11650396e+10,cover=2645
		3:[f6<2204.82007] yes=7,no=8,missing=8,gain=925663232,cover=1802
			7:[f6<768.150024] yes=15,no=16,missing=16,gain=39424000,cover=1593
				15:leaf=-61.4840508,cover=1400
				16:leaf=-54.7944679,cover=193
			8:[f6<3583.21997] yes=17,no=18,missing=18,gain=17179904,cover=209
				17:leaf=-42.8893776,cover=76
				18:leaf=-34.859726,cover=133
		4:[f6<12961.2061] yes=9,no=10,missing=10,gain=2.7125463e+09,cover=843
			9:[f6<8499.12305] yes=19,no=20,missing=20,gain=919336192,cover=758
				19:[f6<6844.30176] yes=25,no=26,missing=26,gain=107165440,cover=393
					25:[f6<5739.10205] yes=33,no=34,missing=34,gain=14006080,cover=188
						33:leaf=-24.8675404,cover=44
						34:leaf=-17.6721115,cover=144
					26:[f6<7740.41553] yes=35,no=36,missing=36,gain=14834688,cover=205
						35:leaf=-11.5701656,cover=106
						36:leaf=-6.07076883,cover=99
				20:[f6<10215.6699] yes=27,no=28,missing=28,gain=149657552,cover=365
					27:[f6<9236.7041] yes=37,no=38,missing=38,gain=14627086,cover=214
						37:leaf=-0.211167365,cover=100
						38:leaf=5.01616955,cover=114
					28:[f6<10946.9209] yes=39,no=40,missing=40,gain=21640544,cover=151
						39:leaf=11.3231487,cover=72
						40:leaf=19.2609921,cover=79
			10:[f6<17072.8105] yes=21,no=22,missing=22,gain=182930432,cover=85
				21:[f6<13795.5264] yes=29,no=30,missing=30,gain=6404544,cover=50
					29:[f1<10165.7207] yes=41,no=42,missing=42,gain=325024,cover=11
						41:leaf=8.2332325,cover=1
						42:leaf=30.0072746,cover=10
					30:leaf=44.9090576,cover=39
				22:[f6<19201.2754] yes=31,no=32,missing=32,gain=2212096,cover=35
					31:leaf=62.8520927,cover=23
					32:leaf=88.4528198,cover=12
	2:[f6<48144.1445] yes=5,no=6,missing=6,gain=1.05495429e+10,cover=386
		5:[f6<40491.043] yes=11,no=12,missing=12,gain=1.73257523e+09,cover=242
			11:[f6<33846.0078] yes=23,no=24,missing=24,gain=100732928,cover=125
				23:leaf=157.775833,cover=33
				24:leaf=200.852463,cover=92
			12:leaf=251.162903,cover=117
		6:[f6<56369.5234] yes=13,no=14,missing=14,gain=246005760,cover=144
			13:leaf=298.730682,cover=70
			14:leaf=359.384552,cover=74
booster[35]:
0:[f6<23844.5684] yes=1,no=2,missing=2,gain=2.95965622e+11,cover=2995
	1:[f6<5066.74023] yes=3,no=4,missing=4,gain=2.0390486e+10,cover=2619
		3:[f5<2159.43994] yes=7,no=8,missing=8,gain=990445568,cover=1798
			7:[f6<704.294006] yes=15,no=16,missing=16,gain=32972800,cover=1576
				15:leaf=-60.9524193,cover=1340
				16:leaf=-55.0957565,cover=236
			8:[f6<3684.25293] yes=17,no=18,missing=18,gain=23217920,cover=222
				17:leaf=-41.3097267,cover=106
				18:leaf=-33.1717262,cover=116
		4:[f6<12961.2061] yes=9,no=10,missing=10,gain=2.51793126e+09,cover=821
			9:[f6<8732.1543] yes=19,no=20,missing=20,gain=883252352,cover=741
				19:[f6<6932.84326] yes=25,no=26,missing=26,gain=113799360,cover=403
					25:[f6<6187.66064] yes=31,no=32,missing=32,gain=14573632,cover=181
						31:leaf=-23.1581631,cover=60
						32:leaf=-16.4878216,cover=121
					26:[f6<7954.82715] yes=33,no=34,missing=34,gain=20017104,cover=222
						33:leaf=-10.6504164,cover=128
						34:leaf=-4.50422144,cover=94
				20:[f6<10371.7725] yes=27,no=28,missing=28,gain=113072736,cover=338
					27:[f6<9614.94336] yes=35,no=36,missing=36,gain=15745880,cover=206
						35:leaf=1.99204671,cover=123
						36:leaf=7.63201094,cover=83
					28:[f6<11446.4688] yes=37,no=38,missing=38,gain=14985888,cover=132
						37:leaf=13.2789116,cover=84
						38:leaf=20.7983398,cover=48
			10:[f6<17072.8105] yes=21,no=22,missing=22,gain=168715776,cover=80
				21:[f0<9667.57812] yes=29,no=30,missing=30,gain=4655808,cover=43
					29:leaf=8.19206524,cover=1
					30:leaf=41.1580544,cover=42
				22:leaf=71.8696289,cover=37
	2:[f6<46888.2227] yes=5,no=6,missing=6,gain=1.06485678e+10,cover=376
		5:[f6<39599.0234] yes=11,no=12,missing=12,gain=1.11847834e+09,cover=212
			11:[f6<31606.3906] yes=23,no=24,missing=24,gain=25350144,cover=113
				23:leaf=122.963242,cover=8
				24:leaf=189.592102,cover=105
			12:leaf=240.235229,cover=99
		6:[f6<55102.1719] yes=13,no=14,missing=14,gain=899760128,cover=164
			13:leaf=287.445801,cover=84
			14:leaf=355.748535,cover=80
booster[36]:
0:[f6<23844.5684] yes=1,no=2,missing=2,gain=3.03066939e+11,cover=3052
	1:[f6<5066.74023] yes=3,no=4,missing=4,gain=2.05944545e+10,cover=2655
		3:[f5<1754.51001] yes=7,no=8,missing=8,gain=1.00804198e+09,cover=1836
			7:[f6<310.609985] yes=15,no=16,missing=16,gain=26337280,cover=1596
				15:leaf=-61.6026955,cover=796
				16:leaf=-57.6658325,cover=800
			8:[f6<3583.21997] yes=17,no=18,missing=18,gain=36327936,cover=240
				17:leaf=-42.842701,cover=95
				18:leaf=-33.5289154,cover=145
		4:[f6<12961.2061] yes=9,no=10,missing=10,gain=2.59384755e+09,cover=819
			9:[f6<8732.1543] yes=19,no=20,missing=20,gain=830914112,cover=734
				19:[f6<7078.95508] yes=23,no=24,missing=24,gain=101134336,cover=390
					23:[f6<6284.92822] yes=31,no=32,missing=32,gain=9852480,cover=192
						31:leaf=-21.261879,cover=64
						32:leaf=-15.7833214,cover=128
					24:[f6<8042.73633] yes=33,no=34,missing=34,gain=14155120,cover=198
						33:leaf=-9.67199612,cover=118
						34:leaf=-4.14722538,cover=80
				20:[f6<10371.7725] yes=25,no=26,missing=26,gain=121827616,cover=344
					25:[f6<9421.65234] yes=35,no=36,missing=36,gain=15663896,cover=212
						35:leaf=1.2300421,cover=104
						36:leaf=6.66964054,cover=108
					26:[f6<11446.4688] yes=37,no=38,missing=38,gain=12494304,cover=132
						37:leaf=13.5843039,cover=84
						38:leaf=20.5582581,cover=48
			10:[f6<17072.8105] yes=21,no=22,missing=22,gain=197192960,cover=85
				21:[f6<13795.5264] yes=27,no=28,missing=28,gain=14479168,cover=49
					27:[f2<11517.1299] yes=39,no=40,missing=40,gain=687768,cover=12
						39:leaf=11.0114784,cover=2
						40:leaf=28.6874733,cover=10
					28:leaf=44.6758499,cover=37
				22:[f6<19201.2754] yes=29,no=30,missing=30,gain=8922624,cover=36
					29:leaf=60.8355827,cover=21
					30:leaf=86.6499481,cover=15
	2:[f6<46319.9531] yes=5,no=6,missing=6,gain=1.08680643e+10,cover=397
		5:[f6<37359.332] yes=11,no=12,missing=12,gain=970530816,cover=218
			11:leaf=175.569839,cover=84
			12:leaf=227.4263,cover=134
		6:[f6<55102.1719] yes=13,no=14,missing=14,gain=1.10610022e+09,cover=179
			13:leaf=282.202606,cover=94
			14:leaf=350.434784,cover=85
booster[37]:
0:[f3<23516.4023] yes=1,no=2,missing=2,gain=2.89556169e+11,cover=3007
	1:[f5<5293.93848] yes=3,no=4,missing=4,gain=1.95150111e+10,cover=2615
		3:[f5<2159.43994] yes=7,no=8,missing=8,gain=1.0146857e+09,cover=1809
			7:[f5<766.150024] yes=15,no=16,missing=16,gain=37154816,cover=1577
				15:leaf=-59.6679916,cover=1384
				16:leaf=-53.1706886,cover=193
			8:[f5<3577.37134] yes=17,no=18,missing=18,gain=28579328,cover=232
				17:leaf=-42.018692,cover=77
				18:[f5<4374.32324] yes=25,no=26,missing=26,gain=3132544,cover=155
					25:leaf=-34.45961,cover=121
					26:leaf=-27.2850609,cover=34
		4:[f5<12958.5371] yes=9,no=10,missing=10,gain=2.22806938e+09,cover=806
			9:[f5<8497.41113] yes=19,no=20,missing=20,gain=794449088,cover=731
				19:[f5<7317.18408] yes=27,no=28,missing=28,gain=73903616,cover=362
					27:[f5<6657.27246] yes=33,no=34,missing=34,gain=11551616,cover=221
						33:leaf=-18.2439213,cover=137
						34:leaf=-13.0466614,cover=84
					28:[f5<7950.12451] yes=35,no=36,missing=36,gain=4472840,cover=141
						35:leaf=-8.79836941,cover=71
						36:leaf=-5.07380104,cover=70
				20:[f5<10365.9844] yes=29,no=30,missing=30,gain=140625536,cover=369
					29:[f5<9342.54004] yes=37,no=38,missing=38,gain=20489010,cover=235
						37:leaf=0.405252129,cover=116
						38:leaf=6.30280399,cover=119
					30:[f5<10934.4199] yes=39,no=40,missing=40,gain=7914112,cover=134
						39:leaf=12.4050817,cover=48
						40:leaf=18.200922,cover=86
			10:[f3<16774.9941] yes=21,no=22,missing=22,gain=202955264,cover=75
				21:[f5<14821.9834] yes=31,no=32,missing=32,gain=18980480,cover=42
					31:[f4<11530.9189] yes=41,no=42,missing=42,gain=2291120,cover=24
						41:leaf=6.38110352,cover=1
						42:leaf=30.7479954,cover=23
					32:leaf=47.636898,cover=18
				22:leaf=73.4969101,cover=33
	2:[f5<44365.1836] yes=5,no=6,missing=6,gain=9.7534935e+09,cover=392
		5:[f5<36835.9023] yes=11,no=12,missing=12,gain=591355904,cover=190
			11:[f4<23733.0312] yes=23,no=24,missing=24,gain=1902592,cover=74
				23:leaf=72.0376968,cover=2
				24:leaf=172.059937,cover=72
			12:leaf=216.852722,cover=116
		6:[f5<50795.7031] yes=13,no=14,missing=14,gain=1.45755341e+09,cover=202
			13:leaf=265.927856,cover=98
			14:leaf=334.09967,cover=104
booster[38]:
0:[f6<23844.5684] yes=1,no=2,missing=2,gain=2.81521062e+11,cover=3013
	1:[f6<5066.74023] yes=3,no=4,missing=4,gain=1.96226048e+10,cover=2633
		3:[f6<2204.82007] yes=7,no=8,missing=8,gain=912519168,cover=1799
			7:[f6<729.593994] yes=15,no=16,missing=16,gain=32821248,cover=1589
				15:leaf=-59.1176224,cover=1374
				16:leaf=-53.1339111,cover=215
			8:[f6<3684.25293] yes=17,no=18,missing=18,gain=17965568,cover=210
				17:leaf=-39.774025,cover=97
				18:leaf=-32.1356239,cover=113
		4:[f6<12961.2061] yes=9,no=10,missing=10,gain=2.39638886e+09,cover=834
			9:[f6<8499.12305] yes=19,no=20,missing=20,gain=828714624,cover=752
				19:[f6<7078.95508] yes=25,no=26,missing=26,gain=94404288,cover=375
					25:[f6<6187.66064] yes=33,no=34,missing=34,gain=13731008,cover=195
						33:leaf=-22.409462,cover=58
						34:leaf=-16.0036736,cover=137
					26:[f6<7740.41553] yes=35,no=36,missing=36,gain=11636824,cover=180
						35:leaf=-10.6043358,cover=85
						36:leaf=-5.40595865,cover=95
				20:[f6<9917.35938] yes=27,no=28,missing=28,gain=132047184,cover=377
					27:[f6<8974.92285] yes=37,no=38,missing=38,gain=9189842,cover=195
						37:leaf=-1.13163435,cover=62
						38:leaf=3.50963211,cover=133
					28:[f6<10946.9209] yes=39,no=40,missing=40,gain=25472800,cover=182
						39:leaf=10.2245522,cover=98
						40:leaf=17.963068,cover=84
			10:[f6<15783.7529] yes=21,no=22,missing=22,gain=195503360,cover=82
				21:[f2<11517.1299] yes=29,no=30,missing=30,gain=4567968,cover=33
					29:leaf=10.8167248,cover=2
					30:leaf=34.552948,cover=31
				22:[f6<19201.2754] yes=31,no=32,missing=32,gain=26611712,cover=49
					31:leaf=58.2303009,cover=36
					32:leaf=84.5405731,cover=13
	2:[f6<48144.1445] yes=5,no=6,missing=6,gain=1.03474299e+10,cover=380
		5:[f6<40491.043] yes=11,no=12,missing=12,gain=1.76336077e+09,cover=240
			11:[f6<33846.0078] yes=23,no=24,missing=24,gain=156688384,cover=121
				23:leaf=147.620667,cover=33
				24:leaf=191.887512,cover=88
			12:leaf=241.576584,cover=119
		6:[f6<55102.1719] yes=13,no=14,missing=14,gain=104595456,cover=140
			13:leaf=286.729462,cover=57
			14:leaf=344.405304,cover=83
booster[39]:
0:[f4<23733.0312] yes=1,no=2,missing=2,gain=2.74492457e+11,cover=3011
	1:[f5<5293.93848] yes=3,no=4,missing=4,gain=1.92905339e+10,cover=2619
		3:[f6<2204.82007] yes=7,no=8,missing=8,gain=1.00240589e+09,cover=1805
			7:[f6<745.049988] yes=15,no=16,missing=16,gain=32673792,cover=1573
				15:leaf=-58.5115089,cover=1377
				16:leaf=-52.3220406,cover=196
			8:[f6<3684.25293] yes=17,no=18,missing=18,gain=33696512,cover=232
				17:leaf=-40.0277519,cover=103
				18:[f6<4374.58984] yes=23,no=24,missing=24,gain=1745792,cover=129
					23:leaf=-32.6745644,cover=94
					24:leaf=-26.0826244,cover=35
		4:[f6<12961.2061] yes=9,no=10,missing=10,gain=2.47560832e+09,cover=814
			9:[f6<8791.79395] yes=19,no=20,missing=20,gain=771337536,cover=730
				19:[f6<7317.33008] yes=25,no=26,missing=26,gain=112619456,cover=400
					25:[f6<6600.21191] yes=33,no=34,missing=34,gain=14056064,cover=220
						33:leaf=-18.6225719,cover=126
						34:leaf=-13.0778046,cover=94
					26:[f6<8042.73633] yes=35,no=36,missing=36,gain=10362044,cover=180
						35:leaf=-8.20743465,cover=83
						36:leaf=-3.34901118,cover=97
				20:[f6<10371.7725] yes=27,no=28,missing=28,gain=106534688,cover=330
					27:[f6<9614.94336] yes=37,no=38,missing=38,gain=14711404,cover=197
						37:leaf=1.95223892,cover=111
						38:leaf=7.46910143,cover=86
					28:[f6<11446.4688] yes=39,no=40,missing=40,gain=13301952,cover=133
						39:leaf=13.1474504,cover=82
						40:leaf=20.1853504,cover=51
			10:[f6<17072.8105] yes=21,no=22,missing=22,gain=168858112,cover=84
				21:[f4<11312.6631] yes=29,no=30,missing=30,gain=10198720,cover=45
					29:leaf=10.7446156,cover=2
					30:leaf=41.0895653,cover=43
				22:[f4<19169.3379] yes=31,no=32,missing=32,gain=13382272,cover=39
					31:leaf=59.42099,cover=25
					32:leaf=84.9156113,cover=14
	2:[f6<44365.1836] yes=5,no=6,missing=6,gain=1.02363628e+10,cover=392
		5:[f6<34698.3047] yes=11,no=12,missing=12,gain=644481024,cover=197
			11:leaf=155.385971,cover=52
			12:leaf=206.567749,cover=145
		6:[f6<53663.6016] yes=13,no=14,missing=14,gain=1.22516275e+09,cover=195
			13:leaf=265.383423,cover=100
			14:leaf=330.915314,cover=95
booster[40]:
0:[f4<23733.0312] yes=1,no=2,missing=2,gain=2.64163033e+11,cover=2931
	1:[f6<5066.74023] yes=3,no=4,missing=4,gain=1.8304727e+10,cover=2554
		3:[f4<1741.64001] yes=7,no=8,missing=8,gain=868179968,cover=1736
			7:[f6<335.679993] yes=15,no=16,missing=16,gain=24973312,cover=1504
				15:leaf=-59.0957146,cover=770
				16:leaf=-55.1798515,cover=734
			8:[f5<3244.86597] yes=17,no=18,missing=18,gain=35351552,cover=232
				17:leaf=-42.5279007,cover=75
				18:[f6<4141.68018] yes=23,no=24,missing=24,gain=2192000,cover=157
					23:leaf=-34.4320564,cover=112
					24:leaf=-28.1511936,cover=45
		4:[f6<12961.2061] yes=9,no=10,missing=10,gain=2.44786176e+09,cover=818
			9:[f6<8499.12305] yes=19,no=20,missing=20,gain=801501440,cover=737
				19:[f6<6733.74756] yes=25,no=26,missing=26,gain=82385280,cover=372
					25:[f6<6187.66064] yes=33,no=34,missing=34,gain=8626112,cover=170
						33:leaf=-21.6684875,cover=61
						34:leaf=-16.1803474,cover=109
					26:[f6<7954.82715] yes=35,no=36,missing=36,gain=11046256,cover=202
						35:leaf=-10.3851595,cover=136
						36:leaf=-5.26251936,cover=66
				20:[f6<10215.6699] yes=27,no=28,missing=28,gain=129484064,cover=365
					27:[f6<9421.65234] yes=37,no=38,missing=38,gain=14821055,cover=213
						37:leaf=0.522965133,cover=130
						38:leaf=5.91682291,cover=83
					28:[f6<10946.9209] yes=39,no=40,missing=40,gain=21676096,cover=152
						39:leaf=10.5847101,cover=74
						40:leaf=18.4544468,cover=78
			10:[f6<17072.8105] yes=21,no=22,missing=22,gain=141808128,cover=81
				21:[f6<13795.5264] yes=29,no=30,missing=30,gain=5775424,cover=43
					29:leaf=28.1173496,cover=11
					30:leaf=43.8850327,cover=32
				22:[f5<19190.0371] yes=31,no=32,missing=32,gain=6270336,cover=38
					31:leaf=59.6421585,cover=26
					32:leaf=84.2650375,cover=12
	2:[f6<44365.1836] yes=5,no=6,missing=6,gain=9.81540864e+09,cover=377
		5:[f6<36870.0586] yes=11,no=12,missing=12,gain=522461184,cover=180
			11:leaf=162.6828,cover=69
			12:leaf=208.081284,cover=111
		6:[f6<50795.7031] yes=13,no=14,missing=14,gain=1.58713446e+09,cover=197
			13:leaf=255.670456,cover=87
			14:leaf=326.504333,cover=110
booster[41]:
0:[f3<23516.4023] yes=1,no=2,missing=2,gain=2.64597406e+11,cover=2983
	1:[f6<4609.5127] yes=3,no=4,missing=4,gain=1.83307284e+10,cover=2590
		3:[f6<1317.93005] yes=7,no=8,missing=8,gain=803610624,cover=1765
			7:[f6<310.609985] yes=15,no=16,missing=16,gain=21090304,cover=1528
				15:leaf=-58.6360207,cover=750
				16:leaf=-54.9024048,cover=778
			8:[f2<3153.86011] yes=17,no=18,missing=18,gain=35249920,cover=237
				17:leaf=-42.6931992,cover=82
				18:leaf=-33.2183762,cover=155
		4:[f6<11943.6299] yes=9,no=10,missing=10,gain=2.45513677e+09,cover=825
			9:[f6<8499.12305] yes=19,no=20,missing=20,gain=739207680,cover=725
				19:[f6<6844.30176] yes=23,no=24,missing=24,gain=86864256,cover=376
					23:[f6<5991.38281] yes=31,no=32,missing=32,gain=12745152,cover=182
						31:leaf=-22.6453514,cover=52
						32:leaf=-16.1324406,cover=130
					24:[f6<7954.82715] yes=33,no=34,missing=34,gain=13719808,cover=194
						33:leaf=-10.4441137,cover=123
						34:leaf=-4.8166728,cover=71
				20:[f6<10215.6699] yes=25,no=26,missing=26,gain=100225664,cover=349
					25:[f6<9421.65234] yes=35,no=36,missing=36,gain=11410000,cover=211
						35:leaf=0.813069463,cover=129
						36:leaf=5.57385874,cover=82
					26:[f6<10946.9209] yes=37,no=38,missing=38,gain=11125792,cover=138
						37:leaf=10.6203575,cover=72
						38:leaf=16.713726,cover=66
			10:[f6<17072.8105] yes=21,no=22,missing=22,gain=254608128,cover=100
				21:[f6<13795.5264] yes=27,no=28,missing=28,gain=26634816,cover=62
					27:[f3<10920.9805] yes=39,no=40,missing=40,gain=789552,cover=24
						39:leaf=10.0513477,cover=2
						40:leaf=26.2695312,cover=22
					28:leaf=41.4118729,cover=38
				22:[f6<19201.2754] yes=29,no=30,missing=30,gain=14487296,cover=38
					29:leaf=58.842659,cover=25
					30:leaf=84.9172668,cover=13
	2:[f6<44365.1836] yes=5,no=6,missing=6,gain=9.34784205e+09,cover=393
		5:[f6<36870.0586] yes=11,no=12,missing=12,gain=516079616,cover=195
			11:leaf=162.88623,cover=73
			12:leaf=206.513565,cover=122
		6:[f6<50795.7031] yes=13,no=14,missing=14,gain=1.61872282e+09,cover=198
			13:leaf=254.129776,cover=97
			14:leaf=324.337372,cover=101
booster[42]:
0:[f4<23733.0312] yes=1,no=2,missing=2,gain=2.66231202e+11,cover=2990
	1:[f5<5055.4834] yes=3,no=4,missing=4,gain=1.77966346e+10,cover=2602
		3:[f4<2157.05005] yes=7,no=8,missing=8,gain=837128192,cover=1781
			7:[f5<766.150024] yes=15,no=16,missing=16,gain=33058816,cover=1564
				15:leaf=-56.7789879,cover=1376
				16:leaf=-50.5505753,cover=188
			8:[f5<3577.37134] yes=17,no=18,missing=18,gain=20861952,cover=217
				17:leaf=-39.6444092,cover=81
				18:leaf=-31.6344337,cover=136
		4:[f5<12958.5371] yes=9,no=10,missing=10,gain=2.09923571e+09,cover=821
			9:[f5<8791.64062] yes=19,no=20,missing=20,gain=745789504,cover=740
				19:[f5<7235.87744] yes=23,no=24,missing=24,gain=112754624,cover=409
					23:[f5<5973.93555] yes=31,no=32,missing=32,gain=16116224,cover=221
						31:leaf=-21.9371758,cover=46
						32:leaf=-14.8196516,cover=175
					24:[f5<7950.12451] yes=33,no=34,missing=34,gain=9510128,cover=188
						33:leaf=-8.54909897,cover=76
						34:leaf=-3.91195631,cover=112
				20:[f5<10541.3223] yes=25,no=26,missing=26,gain=111331920,cover=331
					25:[f5<9524.43359] yes=35,no=36,missing=36,gain=17204104,cover=217
						35:leaf=1.40772498,cover=104
						36:leaf=7.04891777,cover=113
					26:[f5<10934.4199] yes=37,no=38,missing=38,gain=6440192,cover=114
						37:leaf=11.9654865,cover=32
						38:leaf=18.1941357,cover=82
			10:[f5<16989.1621] yes=21,no=22,missing=22,gain=111511168,cover=81
				21:[f5<14821.9834] yes=27,no=28,missing=28,gain=7304448,cover=48
					27:leaf=31.9609337,cover=24
					28:[f3<18261.8789] yes=39,no=40,missing=40,gain=997248,cover=24
						39:leaf=46.2352905,cover=23
						40:leaf=12.6575336,cover=1
				22:[f4<19169.3379] yes=29,no=30,missing=30,gain=4750208,cover=33
					29:leaf=55.9120293,cover=23
					30:leaf=80.7532272,cover=10
	2:[f5<44365.1836] yes=5,no=6,missing=6,gain=9.33576704e+09,cover=388
		5:[f5<36835.9023] yes=11,no=12,missing=12,gain=433414144,cover=180
			11:leaf=161.82251,cover=67
			12:leaf=204.942657,cover=113
		6:[f5<50795.7031] yes=13,no=14,missing=14,gain=1.60145408e+09,cover=208
			13:leaf=252.859421,cover=96
			14:leaf=321.296631,cover=112
booster[43]:
0:[f5<23801.6406] yes=1,no=2,missing=2,gain=2.47737319e+11,cover=2995
	1:[f5<5293.93848] yes=3,no=4,missing=4,gain=1.75459758e+10,cover=2614
		3:[f5<1754.51001] yes=7,no=8,missing=8,gain=963764224,cover=1816
			7:[f4<319.309998] yes=15,no=16,missing=16,gain=25890816,cover=1563
				15:leaf=-57.4318733,cover=792
				16:leaf=-53.6223297,cover=771
			8:[f5<3577.37134] yes=17,no=18,missing=18,gain=34288896,cover=253
				17:leaf=-39.8544312,cover=90
				18:[f5<4224.81006] yes=23,no=24,missing=24,gain=3732864,cover=163
					23:leaf=-32.6716995,cover=114
					24:leaf=-26.4990253,cover=49
		4:[f5<12958.5371] yes=9,no=10,missing=10,gain=2.4515561e+09,cover=798
			9:[f5<8791.64062] yes=19,no=20,missing=20,gain=659211328,cover=705
				19:[f5<7386.37598] yes=25,no=26,missing=26,gain=93405504,cover=398
					25:[f5<6479.2959] yes=33,no=34,missing=34,gain=11735552,cover=229
						33:leaf=-18.0831318,cover=103
						34:leaf=-13.1167345,cover=126
					26:[f5<8040.00635] yes=35,no=36,missing=36,gain=8157236,cover=169
						35:leaf=-8.0333271,cover=75
						36:leaf=-3.55533409,cover=94
				20:[f5<10365.9844] yes=27,no=28,missing=28,gain=85023216,cover=307
					27:[f5<9420.35059] yes=37,no=38,missing=38,gain=10927662,cover=191
						37:leaf=1.46013415,cover=88
						38:leaf=6.26947117,cover=103
					28:[f5<10934.4199] yes=39,no=40,missing=40,gain=10817312,cover=116
						39:leaf=10.4151869,cover=42
						40:leaf=17.3192616,cover=74
			10:[f5<16989.1621] yes=21,no=22,missing=22,gain=141420544,cover=93
				21:[f5<14821.9834] yes=29,no=30,missing=30,gain=14669568,cover=51
					29:[f4<11530.9189] yes=41,no=42,missing=42,gain=3271648,cover=27
						41:leaf=5.82281256,cover=1
						42:leaf=31.8842869,cover=26
					30:[f2<19127.6562] yes=43,no=44,missing=44,gain=1391904,cover=24
						43:leaf=46.9931107,cover=23
						44:leaf=12.5942478,cover=1
				22:[f5<19190.0371] yes=31,no=32,missing=32,gain=14292736,cover=42
					31:leaf=56.0136642,cover=28
					32:leaf=79.9008026,cover=14
	2:[f5<44365.1836] yes=5,no=6,missing=6,gain=8.97531904e+09,cover=381
		5:[f5<36835.9023] yes=11,no=12,missing=12,gain=553631744,cover=187
			11:leaf=157.579269,cover=73
			12:leaf=202.205658,cover=114
		6:[f5<55102.1719] yes=13,no=14,missing=14,gain=1.28488243e+09,cover=194
			13:leaf=256.915924,cover=115
			14:leaf=323.450623,cover=79
booster[44]:
0:[f5<23801.6406] yes=1,no=2,missing=2,gain=2.52961964e+11,cover=3006
	1:[f5<4603.02979] yes=3,no=4,missing=4,gain=1.64367094e+10,cover=2615
		3:[f5<1754.51001] yes=7,no=8,missing=8,gain=744976384,cover=1794
			7:[f5<319.983002] yes=15,no=16,missing=16,gain=24211456,cover=1568
				15:leaf=-56.8309212,cover=788
				16:leaf=-53.1059914,cover=780
			8:[f5<3244.86597] yes=17,no=18,missing=18,gain=27117312,cover=226
				17:leaf=-40.9496918,cover=76
				18:leaf=-32.1479912,cover=150
		4:[f5<10934.4199] yes=9,no=10,missing=10,gain=1.89762765e+09,cover=821
			9:[f5<7950.12451] yes=19,no=20,missing=20,gain=479640128,cover=670
				19:[f5<6534.64502] yes=25,no=26,missing=26,gain=47558208,cover=325
					25:[f5<5734.73193] yes=33,no=34,missing=34,gain=9040608,cover=144
						33:leaf=-22.7767868,cover=48
						34:leaf=-16.5694122,cover=96
					26:[f5<7317.18408] yes=35,no=36,missing=36,gain=6024000,cover=181
						35:leaf=-12.551878,cover=106
						36:leaf=-8.52272892,cover=75
				20:[f5<9524.43359] yes=27,no=28,missing=28,gain=67911504,cover=345
					27:[f5<8791.64062] yes=37,no=38,missing=38,gain=14524475,cover=210
						37:leaf=-3.77381134,cover=103
						38:leaf=1.46427965,cover=107
					28:[f5<10313.4434] yes=39,no=40,missing=40,gain=5733336,cover=135
						39:leaf=6.26375961,cover=86
						40:leaf=10.73985,cover=49
			10:[f5<14821.9834] yes=21,no=22,missing=22,gain=414202496,cover=151
				21:[f5<12958.5371] yes=29,no=30,missing=30,gain=24902528,cover=98
					29:leaf=17.5929527,cover=75
					30:[f4<11530.9189] yes=41,no=42,missing=42,gain=2961408,cover=23
						41:leaf=5.79369593,cover=1
						42:leaf=31.0570526,cover=22
				22:[f5<16989.1621] yes=31,no=32,missing=32,gain=14977024,cover=53
					31:[f2<19127.6562] yes=43,no=44,missing=44,gain=450176,cover=21
						43:leaf=44.4579277,cover=20
						44:leaf=12.5312738,cover=1
					32:leaf=62.1351662,cover=32
	2:[f5<44365.1836] yes=5,no=6,missing=6,gain=9.2277801e+09,cover=391
		5:[f5<36835.9023] yes=11,no=12,missing=12,gain=459415552,cover=189
			11:[f4<31385.5508] yes=23,no=24,missing=24,gain=35317760,cover=74
				23:leaf=115.578331,cover=13
				24:leaf=165.301224,cover=61
			12:leaf=200.092087,cover=115
		6:[f5<53663.6016] yes=13,no=14,missing=14,gain=1.19352525e+09,cover=202
			13:leaf=252.690613,cover=104
			14:leaf=315.321991,cover=98
booster[45]:
0:[f3<23516.4023] yes=1,no=2,missing=2,gain=2.41969005e+11,cover=2952
	1:[f5<4603.02979] yes=3,no=4,missing=4,gain=1.61603543e+10,cover=2571
		3:[f5<1316.83997] yes=7,no=8,missing=8,gain=733007872,cover=1760
			7:[f5<304.859009] yes=15,no=16,missing=16,gain=19394560,cover=1526
				15:leaf=-56.286026,cover=748
				16:leaf=-52.7012253,cover=778
			8:[f5<3244.86597] yes=17,no=18,missing=18,gain=33435648,cover=234
				17:leaf=-41.1187019,cover=80
				18:leaf=-31.844511,cover=154
		4:[f5<12958.5371] yes=9,no=10,missing=10,gain=1.90082278e+09,cover=811
			9:[f5<8497.41113] yes=19,no=20,missing=20,gain=743917952,cover=736
				19:[f5<6840.93604] yes=25,no=26,missing=26,gain=82761536,cover=380
					25:[f5<5734.73193] yes=33,no=34,missing=34,gain=13993152,cover=184
						33:leaf=-22.707058,cover=44
						34:leaf=-15.6434479,cover=140
					26:[f5<7738.84717] yes=35,no=36,missing=36,gain=13926992,cover=196
						35:leaf=-10.5816784,cover=103
						36:leaf=-5.14927864,cover=93
				20:[f5<10313.4434] yes=27,no=28,missing=28,gain=108762864,cover=356
					27:[f5<9420.35059] yes=37,no=38,missing=38,gain=16723500,cover=215
						37:leaf=0.625873208,cover=127
						38:leaf=6.28465796,cover=88
					28:[f5<10934.4199] yes=39,no=40,missing=40,gain=11639456,cover=141
						39:leaf=10.6241217,cover=61
						40:leaf=16.860281,cover=80
			10:[f5<16989.1621] yes=21,no=22,missing=22,gain=114193152,cover=75
				21:[f5<13769.2168] yes=29,no=30,missing=30,gain=6424384,cover=42
					29:leaf=25.2366867,cover=11
					30:leaf=40.311924,cover=31
				22:[f0<14181.5322] yes=31,no=32,missing=32,gain=6273152,cover=33
					31:leaf=24.7268238,cover=2
					32:leaf=65.7343063,cover=31
	2:[f5<47498.6641] yes=5,no=6,missing=6,gain=8.43815322e+09,cover=381
		5:[f5<38990] yes=11,no=12,missing=12,gain=1.01451366e+09,cover=229
			11:[f5<31570.1699] yes=23,no=24,missing=24,gain=22319104,cover=103
				23:leaf=113.222145,cover=9
				24:leaf=170.569336,cover=94
			12:leaf=216.032745,cover=126
		6:[f5<53663.6016] yes=13,no=14,missing=14,gain=153124864,cover=152
			13:leaf=256.320618,cover=52
			14:leaf=310.207581,cover=100
booster[46]:
0:[f6<23844.5684] yes=1,no=2,missing=2,gain=2.35722719e+11,cover=2986
	1:[f6<4609.5127] yes=3,no=4,missing=4,gain=1.62985718e+10,cover=2600
		3:[f6<1317.93005] yes=7,no=8,missing=8,gain=700600320,cover=1767
			7:[f6<290.40799] yes=15,no=16,missing=16,gain=20594688,cover=1546
				15:leaf=-55.7772369,cover=757
				16:leaf=-52.1921425,cover=789
			8:[f2<3153.86011] yes=17,no=18,missing=18,gain=26622720,cover=221
				17:leaf=-40.5576439,cover=70
				18:leaf=-31.6313515,cover=151
		4:[f5<12958.5371] yes=9,no=10,missing=10,gain=2.05545856e+09,cover=833
			9:[f6<8499.12305] yes=19,no=20,missing=20,gain=713497024,cover=748
				19:[f6<6844.30176] yes=23,no=24,missing=24,gain=83508288,cover=391
					23:[f6<5991.38281] yes=31,no=32,missing=32,gain=12710272,cover=187
						31:leaf=-21.639307,cover=57
						32:leaf=-15.385869,cover=130
					24:[f6<7954.82715] yes=33,no=34,missing=34,gain=11994776,cover=204
						33:leaf=-9.78225899,cover=137
						34:leaf=-4.51364517,cover=67
				20:[f6<10215.6699] yes=25,no=26,missing=26,gain=115669344,cover=357
					25:[f6<9421.65234] yes=35,no=36,missing=36,gain=11153615,cover=211
						35:leaf=0.377973169,cover=130
						36:leaf=5.09092665,cover=81
					26:[f6<11446.4688] yes=37,no=38,missing=38,gain=13781280,cover=146
						37:leaf=11.4230347,cover=99
						38:leaf=18.3727989,cover=47
			10:[f6<15783.7529] yes=21,no=22,missing=22,gain=133571328,cover=85
				21:[f6<11555.7764] yes=27,no=28,missing=28,gain=7488768,cover=36
					27:leaf=11.5259151,cover=3
					28:leaf=33.6955719,cover=33
				22:[f6<19201.2754] yes=29,no=30,missing=30,gain=13646720,cover=49
					29:leaf=52.7996407,cover=38
					30:leaf=75.71492,cover=11
	2:[f6<44365.1836] yes=5,no=6,missing=6,gain=9.17948006e+09,cover=386
		5:[f6<36870.0586] yes=11,no=12,missing=12,gain=531820544,cover=195
			11:leaf=153.389069,cover=77
			12:leaf=195.969315,cover=118
		6:[f6<50795.7031] yes=13,no=14,missing=14,gain=1.32254925e+09,cover=191
			13:leaf=242.182632,cover=86
			14:leaf=308.522034,cover=105
booster[47]:
0:[f4<23733.0312] yes=1,no=2,missing=2,gain=2.42843582e+11,cover=3017
	1:[f6<4609.5127] yes=3,no=4,missing=4,gain=1.59180902e+10,cover=2624
		3:[f0<1596.71997] yes=7,no=8,missing=8,gain=721977344,cover=1791
			7:[f6<586.952026] yes=15,no=16,missing=16,gain=25546752,cover=1562
				15:leaf=-54.4095497,cover=1178
				16:leaf=-50.0950584,cover=384
			8:[f4<3236.70093] yes=17,no=18,missing=18,gain=25317888,cover=229
				17:leaf=-39.798069,cover=72
				18:leaf=-31.2045231,cover=157
		4:[f6<11943.6299] yes=9,no=10,missing=10,gain=1.99322624e+09,cover=833
